{"learner":{"attributes":{"scikit_learn":"{\"_estimator_type\": \"classifier\"}"},"feature_names":["lstm_score","graph_score","rag_score","price","stock","rating","viewCount"],"feature_types":["float","float","float","float","int","float","float"],"gradient_booster":{"model":{"cats":{"enc":[],"feature_segments":[],"sorted_idx":[]},"gbtree_model_param":{"num_parallel_tree":"1","num_trees":"100"},"iteration_indptr":[0,1,2,3,4,5,6,7,8,9,10,11,12,13,14,15,16,17,18,19,20,21,22,23,24,25,26,27,28,29,30,31,32,33,34,35,36,37,38,39,40,41,42,43,44,45,46,47,48,49,50,51,52,53,54,55,56,57,58,59,60,61,62,63,64,65,66,67,68,69,70,71,72,73,74,75,76,77,78,79,80,81,82,83,84,85,86,87,88,89,90,91,92,93,94,95,96,97,98,99,100],"tree_info":[0,0,0,0,0,0,0,0,0,0,0,0,0,0,0,0,0,0,0,0,0,0,0,0,0,0,0,0,0,0,0,0,0,0,0,0,0,0,0,0,0,0,0,0,0,0,0,0,0,0,0,0,0,0,0,0,0,0,0,0,0,0,0,0,0,0,0,0,0,0,0,0,0,0,0,0,0,0,0,0,0,0,0,0,0,0,0,0,0,0,0,0,0,0,0,0,0,0,0,0],"trees":[{"base_weights":[-1.040983E-3,-1.9999835E-1,1.4940779E0,-1.97722E0,1.7934871E0,-1.9977762E0,1.9701661E-1,1.3017675E0,1.9995807E-1,-1.9998424E-1,-1.6819934E0,9.582046E-1,1.9942398E-1,-1.9710146E-1,-6.693176E-2,7.687458E-2,1.089759E-1],"categories":[],"categories_nodes":[],"categories_segments":[],"categories_sizes":[],"default_left":[0,0,0,0,0,0,0,0,0,0,0,0,0,0,0,0,0],"id":0,"left_children":[1,-1,3,5,7,9,-1,11,-1,-1,13,15,-1,-1,-1,-1,-1],"loss_changes":[8.449272E5,0E0,1.681044E5,1.0460664E3,1.50865625E4,4.9726562E0,0E0,1.0460844E4,0E0,0E0,2.4833267E1,7.318379E2,0E0,0E0,0E0,0E0,0E0],"parents":[2147483647,0,0,2,2,3,3,4,4,5,5,7,7,10,10,11,11],"right_children":[2,-1,4,6,8,10,-1,12,-1,-1,14,16,-1,-1,-1,-1,-1],"split_conditions":[5.9906745E-1,-1.9999835E-1,5.0014895E-1,7.4090487E-1,6.998525E-1,4.9680912E-1,1.9701661E-1,7.991971E-1,1.9995807E-1,-1.9998424E-1,8.2E1,1.2995E2,1.9942398E-1,-1.9710146E-1,-6.693176E-2,7.687458E-2,1.089759E-1],"split_indices":[1,0,2,1,1,2,0,2,0,0,4,3,0,0,0,0,0],"split_type":[0,0,0,0,0,0,0,0,0,0,0,0,0,0,0,0,0],"sum_hessian":[2.8270934E5,1.20972E5,1.6173736E5,1.2842142E4,1.488952E5,1.2776104E4,6.603772E1,4.3977188E4,1.0491802E5,1.268775E4,8.8353775E1,2.9395367E4,1.4581817E4,6.8E1,2.0353771E1,1.2049314E4,1.7346055E4],"tree_param":{"num_deleted":"0","num_feature":"7","num_nodes":"17","size_leaf_vector":"1"}},{"base_weights":[6.8850315E-4,-1.8340303E0,1.8227926E0,-1.818717E-1,-1.9242712E0,-1.8129827E-1,1.8309623E0,-1.8187396E-1,-2.0982091E-1,-1.7713498E-1,1.831933E0,1.8698188E0,1.8187739E-1,1.9034636E-1,1.8190765E-1],"categories":[],"categories_nodes":[],"categories_segments":[],"categories_sizes":[],"default_left":[0,0,0,0,0,0,0,0,0,0,0,0,0,0,0],"id":1,"left_children":[1,3,5,-1,7,-1,9,-1,-1,-1,11,13,-1,-1,-1],"loss_changes":[9.386486E5,1.8984375E2,4.1877188E3,0E0,3.684375E2,0E0,4.9475E2,0E0,0E0,0E0,6.665625E1,5.8328125E1,0E0,0E0,0E0],"parents":[2147483647,0,0,1,1,2,2,4,4,6,6,10,10,11,11],"right_children":[2,4,6,-1,8,-1,10,-1,-1,-1,12,14,-1,-1,-1],"split_conditions":[5.984489E-1,5.9906745E-1,5.9906745E-1,-1.818717E-1,5.0014895E-1,-1.8129827E-1,4.9680912E-1,-1.8187396E-1,-2.0982091E-1,-1.7713498E-1,6.998525E-1,7.991971E-1,1.8187739E-1,1.9034636E-1,1.8190765E-1],"split_indices":[0,1,1,0,2,0,2,0,0,0,1,2,0,0,0],"split_type":[0,0,0,0,0,0,0,0,0,0,0,0,0,0,0],"sum_hessian":[2.8077422E5,1.3990283E5,1.408714E5,1.1962429E5,2.0278541E4,3.1533618E2,1.4055606E5,1.2628208E4,7.650333E3,3.7375057E1,1.4051869E5,3.6188617E4,1.0433007E5,2.1738428E4,1.4450188E4],"tree_param":{"num_deleted":"0","num_feature":"7","num_nodes":"15","size_leaf_vector":"1"}},{"base_weights":[-9.136462E-4,-1.6942637E0,1.6838789E0,-1.6825692E-1,-1.7625134E-1,-1.677519E-1,1.6914449E0,1.7170932E0,1.6826136E-1,1.5777539E0,1.7233077E-1,1.17176674E-1,1.5831229E-1],"categories":[],"categories_nodes":[],"categories_segments":[],"categories_sizes":[],"default_left":[0,0,0,0,0,0,0,0,0,0,0,0,0],"id":2,"left_children":[1,3,5,-1,-1,-1,7,9,-1,11,-1,-1,-1],"loss_changes":[7.8040475E5,1.0596875E2,3.4900312E3,0E0,0E0,0E0,2.815625E1,2.7578125E1,0E0,1.427002E0,0E0,0E0,0E0],"parents":[2147483647,0,0,1,1,2,2,6,6,7,7,9,9],"right_children":[2,4,6,-1,-1,-1,8,10,-1,12,-1,-1,-1],"split_conditions":[5.984489E-1,5.9906745E-1,5.9906745E-1,-1.6825692E-1,-1.7625134E-1,-1.677519E-1,6.998525E-1,7.110967E-1,1.6826136E-1,8.24E0,1.7233077E-1,1.17176674E-1,1.5831229E-1],"split_indices":[0,1,1,0,0,0,1,0,0,3,0,0,0],"split_type":[0,0,0,0,0,0,0,0,0,0,0,0,0],"sum_hessian":[2.7354172E5,1.3642439E5,1.3711733E5,1.1648987E5,1.9934523E4,3.074395E2,1.3680989E5,3.499165E4,1.01818234E5,1.504845E3,3.3486805E4,2.2502438E1,1.4823425E3],"tree_param":{"num_deleted":"0","num_feature":"7","num_nodes":"13","size_leaf_vector":"1"}},{"base_weights":[2.696983E-3,-1.5768641E-1,1.1729941E0,-1.5597857E0,1.405291E0,-1.5711703E0,1.5426609E-1,1.0040598E0,1.5764555E-1,-1.5728733E-1,-1.3152572E0,7.2849226E-1,1.5694858E-1,-1.5518908E-1,-5.0819885E-2,5.928206E-2,8.254888E-2],"categories":[],"categories_nodes":[],"categories_segments":[],"categories_sizes":[],"default_left":[0,0,0,0,0,0,0,0,0,0,0,0,0,0,0,0,0],"id":3,"left_children":[1,-1,3,5,7,9,-1,11,-1,-1,13,15,-1,-1,-1,-1,-1],"loss_changes":[4.878921E5,0E0,9.624433E4,4.2195703E2,9.5945625E3,3.0898438E0,0E0,6.509699E3,0E0,0E0,1.5317932E1,3.6924707E2,0E0,0E0,0E0,0E0,0E0],"parents":[2147483647,0,0,2,2,3,3,4,4,5,5,7,7,10,10,11,11],"right_children":[2,-1,4,6,8,10,-1,12,-1,-1,14,16,-1,-1,-1,-1,-1],"split_conditions":[5.9906745E-1,-1.5768641E-1,5.0014895E-1,7.4090487E-1,6.998525E-1,4.9680912E-1,1.5426609E-1,7.991971E-1,1.5764555E-1,-1.5728733E-1,8.2E1,1.2995E2,1.5694858E-1,-1.5518908E-1,-5.0819885E-2,5.928206E-2,8.254888E-2],"split_indices":[1,0,2,1,1,2,0,2,0,0,4,3,0,0,0,0,0],"split_type":[0,0,0,0,0,0,0,0,0,0,0,0,0,0,0,0,0],"sum_hessian":[2.6392947E5,1.1232415E5,1.5160531E5,1.1876962E4,1.3972834E5,1.1834029E4,4.2932186E1,4.1785273E4,9.794308E4,1.1750691E4,8.333781E1,2.809507E4,1.3690203E4,6.3729187E1,1.960862E1,1.1715456E4,1.6379614E4],"tree_param":{"num_deleted":"0","num_feature":"7","num_nodes":"17","size_leaf_vector":"1"}},{"base_weights":[1.4186685E-4,-1.5111163E0,1.4991728E0,-1.492187E-1,-1.5418872E-1,-1.5186548E-1,1.5043039E0,1.4275379E0,1.507325E0,1.3826466E0,1.4933471E-1,1.5172179E-1,1.4923619E-1,1.3013063E-1,1.3991807E-1],"categories":[],"categories_nodes":[],"categories_segments":[],"categories_sizes":[],"default_left":[0,0,0,0,0,0,0,0,0,0,0,0,0,0,0],"id":4,"left_children":[1,3,5,-1,-1,-1,7,9,11,13,-1,-1,-1,-1,-1],"loss_changes":[5.7159025E5,7.084375E1,1.9636562E3,0E0,0E0,0E0,2.71875E1,1.2137695E1,1.571875E1,2.0405273E0,0E0,0E0,0E0,0E0,0E0],"parents":[2147483647,0,0,1,1,2,2,6,6,7,7,8,8,9,9],"right_children":[2,4,6,-1,-1,-1,8,10,12,14,-1,-1,-1,-1,-1],"split_conditions":[5.984489E-1,5.0014895E-1,4.9680912E-1,-1.492187E-1,-1.5418872E-1,-1.5186548E-1,7.110967E-1,7.991971E-1,7.991971E-1,5.38E1,1.4933471E-1,1.5172179E-1,1.4923619E-1,1.3013063E-1,1.3991807E-1],"split_indices":[0,2,2,0,0,0,0,2,2,3,0,0,0,0,0],"split_type":[0,0,0,0,0,0,0,0,0,0,0,0,0,0,0],"sum_hessian":[2.5230861E5,1.2564188E5,1.2666672E5,7.781921E4,4.7822676E4,2.1449785E2,1.2645222E5,4.80616E3,1.2164606E5,2.870247E3,1.935913E3,7.316998E4,4.8476086E4,4.9833932E2,2.3719077E3],"tree_param":{"num_deleted":"0","num_feature":"7","num_nodes":"15","size_leaf_vector":"1"}},{"base_weights":[1.5259751E-4,-1.4398788E0,1.4285072E0,-1.4239584E-1,-1.4657547E-1,-1.444497E-1,1.4332939E0,1.3504643E0,1.4365958E0,1.0325998E0,1.3678774E0,1.444778E-1,1.4240961E-1,-1.4891128E-1,1.07991174E-1,1.3295461E-1,1.4250095E-1],"categories":[],"categories_nodes":[],"categories_segments":[],"categories_sizes":[],"default_left":[0,0,0,0,0,0,0,0,0,0,0,0,0,0,0,0,0],"id":5,"left_children":[1,3,5,-1,-1,-1,7,9,11,13,15,-1,-1,-1,-1,-1,-1],"loss_changes":[4.9132075E5,4.6890625E1,1.65125E3,0E0,0E0,0E0,3.08125E1,2.4083984E1,9.703125E0,3.0636658E1,7.6625977E0,0E0,0E0,0E0,0E0,0E0,0E0],"parents":[2147483647,0,0,1,1,2,2,6,6,7,7,8,8,9,9,10,10],"right_children":[2,4,6,-1,-1,-1,8,10,12,14,16,-1,-1,-1,-1,-1,-1],"split_conditions":[5.984489E-1,5.0014895E-1,4.9680912E-1,-1.4239584E-1,-1.4657547E-1,-1.444497E-1,7.110967E-1,1.2E1,7.991971E-1,5E0,7.991971E-1,1.444778E-1,1.4240961E-1,-1.4891128E-1,1.07991174E-1,1.3295461E-1,1.4250095E-1],"split_indices":[0,2,2,0,0,0,0,6,2,4,2,0,0,0,0,0,0],"split_type":[0,0,0,0,0,0,0,0,0,0,0,0,0,0,0,0,0],"sum_hessian":[2.3886552E5,1.18946555E5,1.1991896E5,7.367368E4,4.527288E4,1.9896356E2,1.1971999E5,4.6052246E3,1.15114766E5,2.4230957E2,4.362915E3,6.9503445E4,4.561132E4,3.9012249E0,2.3840836E2,2.625607E3,1.737308E3],"tree_param":{"num_deleted":"0","num_feature":"7","num_nodes":"17","size_leaf_vector":"1"}},{"base_weights":[2.0362064E-3,-1.3812207E0,1.3700992E0,-1.3676876E-1,-1.4031075E-1,-1.3826632E-1,1.3747689E0,1.2873535E0,1.3782717E0,4.759626E-1,1.2941734E0,1.3850711E-1,1.3678032E-1,-6.7524396E-2,1.3238001E-1,1.245923E-1,1.368352E-1],"categories":[],"categories_nodes":[],"categories_segments":[],"categories_sizes":[],"default_left":[0,0,0,0,0,0,0,0,0,0,0,0,0,0,0,0,0],"id":6,"left_children":[1,3,5,-1,-1,-1,7,9,11,13,15,-1,-1,-1,-1,-1,-1],"loss_changes":[4.262643E5,3.1265625E1,1.4576406E3,0E0,0E0,0E0,3.284375E1,2.357129E1,5.84375E0,3.7996925E1,1.3806641E1,0E0,0E0,0E0,0E0,0E0,0E0],"parents":[2147483647,0,0,1,1,2,2,6,6,7,7,8,8,9,9,10,10],"right_children":[2,4,6,-1,-1,-1,8,10,12,14,16,-1,-1,-1,-1,-1,-1],"split_conditions":[5.984489E-1,5.0014895E-1,4.9680912E-1,-1.3676876E-1,-1.4031075E-1,-1.3826632E-1,7.110967E-1,4E0,7.991971E-1,7.930214E-1,7.991971E-1,1.3850711E-1,1.3678032E-1,-6.7524396E-2,1.3238001E-1,1.245923E-1,1.368352E-1],"split_indices":[0,2,2,0,0,0,0,6,2,2,2,0,0,0,0,0,0],"split_type":[0,0,0,0,0,0,0,0,0,0,0,0,0,0,0,0,0],"sum_hessian":[2.2525072E5,1.120034E5,1.1324732E5,6.924899E4,4.27544E4,1.9128185E2,1.1305604E5,4.369981E3,1.0868606E5,3.7014E1,4.332967E3,6.5810766E4,4.2875293E4,1.578477E1,2.1229229E1,2.6360894E3,1.6968777E3],"tree_param":{"num_deleted":"0","num_feature":"7","num_nodes":"17","size_leaf_vector":"1"}},{"base_weights":[-1.090017E-3,-1.3323618E-1,1.3214332E0,1.1287276E0,1.3296999E-1,7.779304E-1,1.178367E0,-1.3856578E-1,8.0403256E-1,1.0790877E0,1.2395281E0,-1.1144956E-2,8.626514E-2,1.0858696E-1,-3.1007707E-4,1.20122135E-1,1.2871037E-1],"categories":[],"categories_nodes":[],"categories_segments":[],"categories_sizes":[],"default_left":[0,0,0,0,0,0,0,0,0,0,0,0,0,0,0,0,0],"id":7,"left_children":[1,-1,3,5,-1,7,9,-1,11,13,15,-1,-1,-1,-1,-1,-1],"loss_changes":[3.7016903E5,0E0,1.665E2,7.474414E1,0E0,3.1698456E1,2.1763672E1,0E0,2.8846191E1,1.0704102E1,2.7316895E0,0E0,0E0,0E0,0E0,0E0,0E0],"parents":[2147483647,0,0,2,2,3,3,5,5,6,6,8,8,9,9,10,10],"right_children":[2,-1,4,6,-1,8,10,-1,12,14,16,-1,-1,-1,-1,-1,-1],"split_conditions":[5.984489E-1,-1.3323618E-1,7.110967E-1,2.5E1,1.3296999E-1,3.5648193E0,3.12E2,-1.3856578E-1,3E0,1.66257E3,2.699E3,-1.1144956E-2,8.626514E-2,1.0858696E-1,-3.1007707E-4,1.20122135E-1,1.2871037E-1],"split_indices":[0,0,0,6,0,5,6,0,6,3,6,0,0,0,0,0,0],"split_type":[0,0,0,0,0,0,0,0,0,0,0,0,0,0,0,0,0],"sum_hessian":[2.1024511E5,1.04776E5,1.054691E5,4.3439824E3,1.01125125E5,5.405611E2,3.8034214E3,5.82286E0,5.347382E2,1.4570004E3,2.346421E3,3.212487E1,5.0261337E2,1.4479231E3,9.077266E0,1.3143701E3,1.0320509E3],"tree_param":{"num_deleted":"0","num_feature":"7","num_nodes":"17","size_leaf_vector":"1"}},{"base_weights":[1.2798214E-4,-1.2911766E0,1.2796644E0,-1.280679E-1,-1.3080503E-1,-1.3665156E-1,1.2847264E0,1.1865045E0,1.28868E0,1.1280909E0,1.286362E-1,1.2937959E-1,1.2808338E-1,1.0607648E-1,1.1448778E-1],"categories":[],"categories_nodes":[],"categories_segments":[],"categories_sizes":[],"default_left":[0,0,0,0,0,0,0,0,0,0,0,0,0,0,0],"id":8,"left_children":[1,3,5,-1,-1,-1,7,9,11,13,-1,-1,-1,-1,-1],"loss_changes":[3.245108E5,1.5640625E1,1.3232031E3,0E0,0E0,0E0,3.6703125E1,2.0845703E1,2.15625E0,1.5205078E0,0E0,0E0,0E0,0E0,0E0],"parents":[2147483647,0,0,1,1,2,2,6,6,7,7,8,8,9,9],"right_children":[2,4,6,-1,-1,-1,8,10,12,14,-1,-1,-1,-1,-1],"split_conditions":[5.984489E-1,5.0014895E-1,4.9680912E-1,-1.280679E-1,-1.3080503E-1,-1.3665156E-1,7.110967E-1,7.991971E-1,7.991971E-1,5.784E1,1.286362E-1,1.2937959E-1,1.2808338E-1,1.0607648E-1,1.1448778E-1],"split_indices":[0,2,2,0,0,0,0,2,2,3,0,0,0,0,0],"split_type":[0,0,0,0,0,0,0,0,0,0,0,0,0,0,0],"sum_hessian":[1.9640089E5,9.775092E4,9.864997E4,6.0308082E4,3.7442836E4,1.8784059E2,9.8462125E4,3.821484E3,9.464064E4,2.4188342E3,1.4026497E3,5.7188188E4,3.7452453E4,4.9555203E2,1.9232822E3],"tree_param":{"num_deleted":"0","num_feature":"7","num_nodes":"15","size_leaf_vector":"1"}},{"base_weights":[2.9234758E-3,-1.2449749E0,5.5607045E-1,-1.2471794E-1,-9.4578665E-1,2.8104463E-1,1.2403781E0,-9.8682487E-1,-5.982215E-2,-9.069312E-2,6.285167E-1,1.2122132E0,1.2472854E-1,-3.1515652E-1,-1.0481743E0,4.5837802E-1,-1.0680467E-1,-7.4870783E-1,3.359989E-2,4.0662712E-1,8.107836E-1,-9.304597E-2,1.21313E0,-1.19656436E-1,5.467346E-2,-1.07307054E-1,4.3704477E-3,7.15907E-2,-8.012452E-2,-1.00673E-1,-5.731551E-2,8.165604E-3,-2.9605148E-2,3.1228287E-2,4.7066197E-2,7.2641045E-2,9.156685E-2,9.890834E-2,1.2169891E-1],"categories":[],"categories_nodes":[],"categories_segments":[],"categories_sizes":[],"default_left":[0,0,0,0,0,0,0,0,0,0,0,0,0,0,0,0,0,0,0,0,0,0,0,0,0,0,0,0,0,0,0,0,0,0,0,0,0,0,0],"id":9,"left_children":[1,3,5,-1,7,9,11,13,15,17,19,21,-1,23,25,27,-1,29,31,33,35,-1,37,-1,-1,-1,-1,-1,-1,-1,-1,-1,-1,-1,-1,-1,-1,-1,-1],"loss_changes":[1.2627684E5,3.5867188E1,2.3854871E4,0E0,1.5033905E1,1.1678986E4,5.5585938E0,1.6015259E1,1.0647093E1,3.5727686E3,1.8897227E3,1.5258789E1,0E0,2.6961359E1,9.915802E0,4.9662333E0,0E0,3.138042E2,5.821175E2,1.2719165E2,2.2638281E2,0E0,5.0126953E0,0E0,0E0,0E0,0E0,0E0,0E0,0E0,0E0,0E0,0E0,0E0,0E0,0E0,0E0,0E0,0E0],"parents":[2147483647,0,0,1,1,2,2,4,4,5,5,6,6,7,7,8,8,9,9,10,10,11,11,13,13,14,14,15,15,17,17,18,18,19,19,20,20,22,22],"right_children":[2,4,6,-1,8,10,12,14,16,18,20,22,-1,24,26,28,-1,30,32,34,36,-1,38,-1,-1,-1,-1,-1,-1,-1,-1,-1,-1,-1,-1,-1,-1,-1,-1],"split_conditions":[5.0014895E-1,4.9680912E-1,7.991971E-1,-1.2471794E-1,4.9649086E0,2.03E2,8.388461E-1,6E0,9.264E1,9E0,1.229E3,2E0,1.2472854E-1,4.68E2,9.9E1,6.8E1,-1.0680467E-1,4E0,4.0333E2,3.9E2,5.398E3,-9.304597E-2,7E0,-1.19656436E-1,5.467346E-2,-1.07307054E-1,4.3704477E-3,7.15907E-2,-8.012452E-2,-1.00673E-1,-5.731551E-2,8.165604E-3,-2.9605148E-2,3.1228287E-2,4.7066197E-2,7.2641045E-2,9.156685E-2,9.890834E-2,1.2169891E-1],"split_indices":[2,2,2,0,5,6,2,4,3,6,6,6,0,6,4,4,0,6,3,6,6,0,6,0,0,0,0,0,0,0,0,0,0,0,0,0,0,0,0],"split_type":[0,0,0,0,0,0,0,0,0,0,0,0,0,0,0,0,0,0,0,0,0,0,0,0,0,0,0,0,0,0,0,0,0,0,0,0,0,0,0],"sum_hessian":[1.8293602E5,5.6183938E4,1.26752086E5,5.5769824E4,4.1411624E2,9.0415266E4,3.633682E4,3.956746E2,1.8441645E1,4.368271E4,4.6732555E4,7.1910493E3,2.9145771E4,3.3629368E1,3.6204523E2,1.254118E1,5.900466E0,6.9395083E3,3.6743203E4,2.1076955E4,2.56556E4,2.6423838E0,7.1884067E3,1.6434462E1,1.7194908E1,3.53991E2,8.054226E0,1.0770757E1,1.7704227E0,2.8078625E3,4.1316455E3,3.2068979E4,4.674222E3,8.524079E3,1.2552877E4,1.4222468E4,1.1433131E4,1.26074715E2,7.062332E3],"tree_param":{"num_deleted":"0","num_feature":"7","num_nodes":"39","size_leaf_vector":"1"}},{"base_weights":[2.6349086E-4,-1.2160081E0,5.164435E-1,-1.2181944E-1,-9.2592824E-1,2.5531304E-1,1.2102544E0,-9.6680605E-1,-3.4076113E-2,-1.3285038E-1,5.435794E-1,1.177928E0,1.21829204E-1,-1.0980223E0,-7.620617E-1,4.623581E-1,-1.0318805E-1,-6.4614344E-1,-5.2000773E-3,3.4541246E-1,7.5253206E-1,9.0449333E-1,1.1832671E0,-9.471913E-2,-1.2186556E-1,6.2576376E-2,-8.211273E-2,7.1009085E-2,-7.778285E-2,-9.36768E-2,-4.8437998E-2,9.19973E-3,-1.5884021E-2,2.7496591E-2,4.2529467E-2,6.753955E-2,8.651834E-2,9.5316075E-2,-9.5508635E-2,1.1539415E-1,1.19759284E-1],"categories":[],"categories_nodes":[],"categories_segments":[],"categories_sizes":[],"default_left":[0,0,0,0,0,0,0,0,0,0,0,0,0,0,0,0,0,0,0,0,0,0,0,0,0,0,0,0,0,0,0,0,0,0,0,0,0,0,0,0,0],"id":10,"left_children":[1,3,5,-1,7,9,11,13,15,17,19,21,-1,23,25,27,-1,29,31,33,35,37,39,-1,-1,-1,-1,-1,-1,-1,-1,-1,-1,-1,-1,-1,-1,-1,-1,-1,-1],"loss_changes":[1.0949953E5,3.1828125E1,2.2184139E4,0E0,1.4291016E1,9.954795E3,7.265625E0,9.25528E0,9.520007E0,2.4842068E3,2.1136836E3,8.708008E0,0E0,2.969818E0,1.2808464E1,4.509886E0,0E0,3.5453564E2,4.5345523E2,1.4734521E2,2.1534082E2,1.29032135E1,1.3769531E0,0E0,0E0,0E0,0E0,0E0,0E0,0E0,0E0,0E0,0E0,0E0,0E0,0E0,0E0,0E0,0E0,0E0,0E0],"parents":[2147483647,0,0,1,1,2,2,4,4,5,5,6,6,7,7,8,8,9,9,10,10,11,11,13,13,14,14,15,15,17,17,18,18,19,19,20,20,21,21,22,22],"right_children":[2,4,6,-1,8,10,12,14,16,18,20,22,-1,24,26,28,-1,30,32,34,36,38,40,-1,-1,-1,-1,-1,-1,-1,-1,-1,-1,-1,-1,-1,-1,-1,-1,-1,-1],"split_conditions":[5.0014895E-1,4.9680912E-1,7.991971E-1,-1.2181944E-1,4.9649086E0,1.36E2,8.388461E-1,1.65E2,9.264E1,1E1,1.229E3,7E0,1.21829204E-1,4.1517925E0,1.69E2,4.9883304E0,-1.0318805E-1,4E0,1.2613E2,3.9E2,5.582E3,2.6719E2,1.83E2,-9.471913E-2,-1.2186556E-1,6.2576376E-2,-8.211273E-2,7.1009085E-2,-7.778285E-2,-9.36768E-2,-4.8437998E-2,9.19973E-3,-1.5884021E-2,2.7496591E-2,4.2529467E-2,6.753955E-2,8.651834E-2,9.5316075E-2,-9.5508635E-2,1.1539415E-1,1.19759284E-1],"split_indices":[2,2,2,0,5,6,2,6,3,6,6,6,0,5,6,5,0,6,3,6,6,3,6,0,0,0,0,0,0,0,0,0,0,0,0,0,0,0,0,0,0],"split_type":[0,0,0,0,0,0,0,0,0,0,0,0,0,0,0,0,0,0,0,0,0,0,0,0,0,0,0,0,0,0,0,0,0,0,0,0,0,0,0,0,0],"sum_hessian":[1.7441167E5,5.1965156E4,1.22446516E5,5.1573254E4,3.9190134E2,8.896429E4,3.3482227E4,3.7464554E2,1.725581E1,3.791313E4,5.1051164E4,6.696594E3,2.678563E4,2.2566115E2,1.4898439E2,1.1881214E1,5.3745956E0,7.5499707E3,3.0363158E4,2.6203186E4,2.4847979E4,1.3151646E2,6.565078E3,1.0421274E2,1.2144841E2,5.6902375E0,1.4329416E2,1.0259305E1,1.6219091E0,2.697982E3,4.851989E3,1.8597941E4,1.1765217E4,1.39263E4,1.2276886E4,1.4753022E4,1.0094956E4,1.286373E2,2.8791564E0,2.1813408E3,4.3837373E3],"tree_param":{"num_deleted":"0","num_feature":"7","num_nodes":"41","size_leaf_vector":"1"}},{"base_weights":[-2.7240027E-4,-1.2285578E0,1.2135686E0,-1.2162896E0,-1.2936289E0,-1.5471503E-1,1.2216301E0,-1.2110118E0,-1.226513E-1,-1.2818323E-1,-1.3171619E-1,1.232193E0,1.2122452E0,-1.200059E-1,-1.2142666E-1,1.1720843E0,1.2346299E0,1.2278571E0,1.2064912E-1,9.97961E-2,1.2434562E-1,1.2588404E-1,1.2256334E-1,1.17216885E-1,1.2305649E-1],"categories":[],"categories_nodes":[],"categories_segments":[],"categories_sizes":[],"default_left":[0,0,0,0,0,0,0,0,0,0,0,0,0,0,0,0,0,0,0,0,0,0,0,0,0],"id":11,"left_children":[1,3,5,7,9,-1,11,13,-1,-1,-1,15,17,-1,-1,19,21,23,-1,-1,-1,-1,-1,-1,-1],"loss_changes":[2.4854805E5,6.457031E1,1.8679375E3,2.28125E0,1.9550781E0,0E0,6.796875E0,1.875E-1,0E0,0E0,0E0,4.3007812E0,2.4960938E0,0E0,0E0,1.8019043E1,6.6757812E0,3.4960938E-1,0E0,0E0,0E0,0E0,0E0,0E0,0E0],"parents":[2147483647,0,0,1,1,2,2,3,3,4,4,6,6,7,7,11,11,12,12,15,15,16,16,17,17],"right_children":[2,4,6,8,10,-1,12,14,-1,-1,-1,16,18,-1,-1,20,22,24,-1,-1,-1,-1,-1,-1,-1],"split_conditions":[5.984489E-1,5.9906745E-1,5.9906745E-1,2.03E2,2.14E2,-1.5471503E-1,3.8E2,9E0,-1.226513E-1,-1.2818323E-1,-1.3171619E-1,7.110967E-1,6.998525E-1,-1.200059E-1,-1.2142666E-1,6.998525E-1,6.998525E-1,7.110967E-1,1.2064912E-1,9.97961E-2,1.2434562E-1,1.2588404E-1,1.2256334E-1,1.17216885E-1,1.2305649E-1],"split_indices":[0,1,1,6,6,0,6,6,0,0,0,0,1,0,0,1,1,0,0,0,0,0,0,0,0],"split_type":[0,0,0,0,0,0,0,0,0,0,0,0,0,0,0,0,0,0,0,0,0,0,0,0,0],"sum_hessian":[1.6670325E5,8.285862E4,8.384463E4,6.973143E4,1.312719E4,2.4356526E2,8.360106E4,4.6068047E4,2.366338E4,8.78091E3,4.3462803E3,3.927085E4,4.433021E4,1.0638374E4,3.542967E4,1.5487985E3,3.7722055E4,1.1881347E4,3.2448865E4,4.5463196E2,1.0941665E3,1.0182037E4,2.7540018E4,5.710634E2,1.1310283E4],"tree_param":{"num_deleted":"0","num_feature":"7","num_nodes":"25","size_leaf_vector":"1"}},{"base_weights":[2.6598268E-3,-1.192702E0,8.623799E-1,-1.1712157E-1,-1.2228024E0,-1.1564928E0,1.0163511E0,-1.2123827E0,-1.2418685E-1,-1.1670748E0,1.18991256E-1,6.482899E-1,1.1906512E0,-1.18845955E-1,-1.2190223E-1,-1.1691307E-1,-8.926244E-1,4.545511E-1,1.1638279E-1,1.2020179E0,1.17146134E-1,-1.1545309E-1,-2.027637E-2,1.3153155E-2,7.0646614E-2,1.2147454E-1,1.1900812E-1],"categories":[],"categories_nodes":[],"categories_segments":[],"categories_sizes":[],"default_left":[0,0,0,0,0,0,0,0,0,0,0,0,0,0,0,0,0,0,0,0,0,0,0,0,0,0,0],"id":12,"left_children":[1,3,5,-1,7,9,11,13,-1,15,-1,17,19,-1,-1,-1,21,23,-1,25,-1,-1,-1,-1,-1,-1,-1],"loss_changes":[1.5862578E5,4.0328125E1,2.7909648E4,0E0,3.8320312E0,1.5936816E2,5.350875E3,1.3164062E0,0E0,2.5302734E0,0E0,2.6773594E3,1.09375E1,0E0,0E0,0E0,9.039585E0,1.5858203E3,0E0,3.9570312E0,0E0,0E0,0E0,0E0,0E0,0E0,0E0],"parents":[2147483647,0,0,1,1,2,2,4,4,5,5,6,6,7,7,9,9,11,11,12,12,16,16,17,17,19,19],"right_children":[2,4,6,-1,8,10,12,14,-1,16,-1,18,20,-1,-1,-1,22,24,-1,26,-1,-1,-1,-1,-1,-1,-1],"split_conditions":[5.9906745E-1,5.0014895E-1,5.0014895E-1,-1.1712157E-1,2.03E2,7.4090487E-1,6.998525E-1,9E0,-1.2418685E-1,4.9680912E-1,1.18991256E-1,7.991971E-1,7.991971E-1,-1.18845955E-1,-1.2190223E-1,-1.1691307E-1,8.2E1,1.73E2,1.1638279E-1,3.9E2,1.17146134E-1,-1.1545309E-1,-2.027637E-2,1.3153155E-2,7.0646614E-2,1.2147454E-1,1.1900812E-1],"split_indices":[1,2,2,0,6,1,1,6,0,2,0,2,2,0,0,0,4,6,0,6,0,0,0,0,0,0,0],"split_type":[0,0,0,0,0,0,0,0,0,0,0,0,0,0,0,0,0,0,0,0,0,0,0,0,0,0,0],"sum_hessian":[1.543518E5,6.457115E4,8.978064E4,3.769987E4,2.6871275E4,6.3615405E3,8.34191E4,1.7417252E4,9.454024E3,6.33348E3,2.8060648E1,2.6810129E4,5.6608977E4,3.8228928E3,1.3594359E4,6.2831533E3,5.032681E1,1.9488314E4,7.3218135E3,3.5512387E4,2.109659E4,3.5989697E1,1.43371105E1,8.539725E3,1.094859E4,1.7138174E4,1.837421E4],"tree_param":{"num_deleted":"0","num_feature":"7","num_nodes":"27","size_leaf_vector":"1"}},{"base_weights":[-3.6675127E-3,-1.1854299E0,1.1688889E0,-1.1518773E-1,-1.2294568E0,-1.4297754E0,1.1767339E0,-1.1951451E0,-1.3706355E0,-1.17197834E-1,-1.671239E-1,-1.2792331E-1,1.1776597E0,-1.1860366E0,-1.21173225E-1,-1.3410603E-1,-1.4186443E-1,1.1922042E0,1.1523571E-1,-1.1659076E-1,-1.1915707E-1,1.2236058E-1,1.1797803E-1],"categories":[],"categories_nodes":[],"categories_segments":[],"categories_sizes":[],"default_left":[0,0,0,0,0,0,0,0,0,0,0,0,0,0,0,0,0,0,0,0,0,0,0],"id":13,"left_children":[1,3,5,-1,7,9,11,13,15,-1,-1,-1,17,19,-1,-1,-1,21,-1,-1,-1,-1,-1],"loss_changes":[1.9748695E5,1.034375E2,1.4600938E3,0E0,1.469961E2,1.147229E1,1.6370312E2,2.2929688E0,6.6064453E0,0E0,0E0,0E0,2.4867188E1,3.9453125E-1,0E0,0E0,0E0,1.6207031E1,0E0,0E0,0E0,0E0,0E0],"parents":[2147483647,0,0,1,1,2,2,4,4,5,5,6,6,7,7,8,8,12,12,13,13,17,17],"right_children":[2,4,6,-1,8,10,12,14,16,-1,-1,-1,18,20,-1,-1,-1,22,-1,-1,-1,-1,-1],"split_conditions":[5.984489E-1,5.0014895E-1,5.9906745E-1,-1.1518773E-1,5.9906745E-1,4.9680912E-1,4.9680912E-1,2.03E2,1.73E2,-1.17197834E-1,-1.671239E-1,-1.2792331E-1,7.991971E-1,9E0,-1.21173225E-1,-1.3410603E-1,-1.4186443E-1,6.998525E-1,1.1523571E-1,-1.1659076E-1,-1.1915707E-1,1.2236058E-1,1.1797803E-1],"split_indices":[0,2,1,0,1,2,2,6,6,0,0,0,2,6,0,0,0,1,0,0,0,0,0],"split_type":[0,0,0,0,0,0,0,0,0,0,0,0,0,0,0,0,0,0,0,0,0,0,0],"sum_hessian":[1.4251756E5,7.098014E4,7.153743E4,4.0297117E4,3.0683025E4,2.1476265E2,7.1322664E4,2.4691535E4,5.99149E3,1.066994E2,1.0806324E2,2.6359991E1,7.1296305E4,1.5985722E4,8.7058125E3,3.7254138E3,2.2660764E3,4.5243305E4,2.6053002E4,3.4928596E3,1.2492862E4,1.2798296E4,3.2445008E4],"tree_param":{"num_deleted":"0","num_feature":"7","num_nodes":"23","size_leaf_vector":"1"}},{"base_weights":[-2.480453E-3,-1.1646396E0,1.1490821E0,-1.13534726E-1,-1.2028735E0,-1.373542E0,1.1568407E0,-1.1731682E0,-1.3228083E0,-1.1503351E-1,-1.5631105E-1,-1.23906136E-1,1.1577693E0,-1.1652018E-1,-1.187583E-1,-1.29817E-1,-1.3629927E-1,1.1703109E0,1.135784E-1,1.1961341E-1,1.1599065E-1],"categories":[],"categories_nodes":[],"categories_segments":[],"categories_sizes":[],"default_left":[0,0,0,0,0,0,0,0,0,0,0,0,0,0,0,0,0,0,0,0,0],"id":14,"left_children":[1,3,5,-1,7,9,11,13,15,-1,-1,-1,17,-1,-1,-1,-1,19,-1,-1,-1],"loss_changes":[1.759552E5,7.192969E1,1.2941016E3,0E0,9.952344E1,6.7890625E0,1.4792188E2,1.2265625E0,3.7988281E0,0E0,0E0,0E0,1.68125E1,0E0,0E0,0E0,0E0,9.859375E0,0E0,0E0,0E0],"parents":[2147483647,0,0,1,1,2,2,4,4,5,5,6,6,7,7,8,8,12,12,17,17],"right_children":[2,4,6,-1,8,10,12,14,16,-1,-1,-1,18,-1,-1,-1,-1,20,-1,-1,-1],"split_conditions":[5.984489E-1,5.0014895E-1,5.9906745E-1,-1.13534726E-1,5.9906745E-1,4.9680912E-1,4.9680912E-1,2.03E2,1.73E2,-1.1503351E-1,-1.5631105E-1,-1.23906136E-1,7.991971E-1,-1.1652018E-1,-1.187583E-1,-1.29817E-1,-1.3629927E-1,6.998525E-1,1.135784E-1,1.1961341E-1,1.1599065E-1],"split_indices":[0,2,1,0,1,2,2,6,6,0,0,0,2,0,0,0,0,1,0,0,0],"split_type":[0,0,0,0,0,0,0,0,0,0,0,0,0,0,0,0,0,0,0,0,0],"sum_hessian":[1.3147477E5,6.5436305E4,6.603845E4,3.7067926E4,2.8368379E4,2.0194408E2,6.583651E4,2.2745586E4,5.6227925E3,9.598958E1,1.0595449E2,2.499231E1,6.5811516E4,1.4702136E4,8.04345E3,3.5062847E3,2.1165078E3,4.187285E4,2.3938664E4,1.1992865E4,2.9879988E4],"tree_param":{"num_deleted":"0","num_feature":"7","num_nodes":"21","size_leaf_vector":"1"}},{"base_weights":[-4.298027E-5,-1.1356093E0,8.045376E-1,-1.1211326E-1,-1.1556391E-1,-1.1196852E-1,9.4636804E-1,5.723687E-1,1.1341543E0,3.8874477E-1,1.1122812E0,1.14169195E-1,1.1212798E-1,-7.992309E-2,3.915966E-2,1.07786275E-1,1.1204963E-1],"categories":[],"categories_nodes":[],"categories_segments":[],"categories_sizes":[],"default_left":[0,0,0,0,0,0,0,0,0,0,0,0,0,0,0,0,0],"id":15,"left_children":[1,3,5,-1,-1,-1,7,9,11,13,15,-1,-1,-1,-1,-1,-1],"loss_changes":[1.1031534E5,1.321875E1,1.9287707E4,0E0,0E0,0E0,4.621926E3,2.1809653E3,2.96875E0,5.5943848E1,3.7060547E-1,0E0,0E0,0E0,0E0,0E0,0E0],"parents":[2147483647,0,0,1,1,2,2,6,6,7,7,8,8,9,9,10,10],"right_children":[2,4,6,-1,-1,-1,8,10,12,14,16,-1,-1,-1,-1,-1,-1],"split_conditions":[5.9906745E-1,5.0014895E-1,4.9680912E-1,-1.1211326E-1,-1.1556391E-1,-1.1196852E-1,6.998525E-1,7.991971E-1,7.991971E-1,5.0014895E-1,8.388461E-1,1.14169195E-1,1.1212798E-1,-7.992309E-2,3.915966E-2,1.07786275E-1,1.1204963E-1],"split_indices":[1,2,2,0,0,0,1,2,2,2,2,0,0,0,0,0,0],"split_type":[0,0,0,0,0,0,0,0,0,0,0,0,0,0,0,0,0],"sum_hessian":[1.20738766E5,5.0070297E4,7.066847E4,2.9097113E4,2.0973186E4,4.8507773E3,6.581769E4,2.2002014E4,4.381567E4,1.641948E4,5.5825347E3,2.7580432E4,1.6235241E4,3.8652786E1,1.6380827E4,1.1011674E3,4.4813677E3],"tree_param":{"num_deleted":"0","num_feature":"7","num_nodes":"17","size_leaf_vector":"1"}},{"base_weights":[1.0391047E-3,-1.1361133E0,1.1193146E0,-1.10800065E-1,-1.1715429E0,-1.1397388E-1,1.123505E0,-1.1618771E-1,-1.1878389E-1,9.9957544E-1,1.1289835E0,9.416256E-1,1.109189E-1,1.1405165E0,1.10823646E-1,7.1430825E-2,9.941574E-2,1.15392245E-1,1.1319422E-1],"categories":[],"categories_nodes":[],"categories_segments":[],"categories_sizes":[],"default_left":[0,0,0,0,0,0,0,0,0,0,0,0,0,0,0,0,0,0,0],"id":16,"left_children":[1,3,5,-1,7,-1,9,-1,-1,11,13,15,-1,17,-1,-1,-1,-1,-1],"loss_changes":[1.4230786E5,5.3960938E1,5.3540625E2,0E0,2.484375E0,0E0,3.7117188E1,0E0,0E0,1.4156006E1,1.16328125E1,1.806189E1,0E0,2.6757812E0,0E0,0E0,0E0,0E0,0E0],"parents":[2147483647,0,0,1,1,2,2,4,4,6,6,9,9,10,10,11,11,13,13],"right_children":[2,4,6,-1,8,-1,10,-1,-1,12,14,16,-1,18,-1,-1,-1,-1,-1],"split_conditions":[5.984489E-1,5.0014895E-1,4.9680912E-1,-1.10800065E-1,1.83E2,-1.1397388E-1,7.110967E-1,-1.1618771E-1,-1.1878389E-1,7.991971E-1,7.991971E-1,3.8E1,1.109189E-1,1.97E2,1.10823646E-1,7.1430825E-2,9.941574E-2,1.15392245E-1,1.1319422E-1],"split_indices":[0,2,2,0,6,0,0,0,0,2,2,6,0,6,0,0,0,0,0],"split_type":[0,0,0,0,0,0,0,0,0,0,0,0,0,0,0,0,0,0,0],"sum_hessian":[1.11906086E5,5.548473E4,5.6421355E4,3.0954865E4,2.4529865E4,1.0396352E2,5.631739E4,1.5442631E4,9.087234E3,2.3919746E3,5.3925414E4,1.5710118E3,8.2096265E2,3.462419E4,1.9301225E4,2.9764218E2,1.2733696E3,1.3454604E4,2.1169588E4],"tree_param":{"num_deleted":"0","num_feature":"7","num_nodes":"19","size_leaf_vector":"1"}},{"base_weights":[-1.0361262E-3,-1.121765E0,1.1046326E0,-1.09666765E-1,-1.153269E0,-1.12281315E-1,1.1087687E0,-1.1448971E-1,-1.1683109E-1,9.594161E-1,1.1152884E0,8.918401E-1,1.0981735E-1,1.1255112E0,1.096872E-1,7.491112E-2,9.932316E-2,1.1348846E-1,1.11611E-1],"categories":[],"categories_nodes":[],"categories_segments":[],"categories_sizes":[],"default_left":[0,0,0,0,0,0,0,0,0,0,0,0,0,0,0,0,0,0,0],"id":17,"left_children":[1,3,5,-1,7,-1,9,-1,-1,11,13,15,-1,17,-1,-1,-1,-1,-1],"loss_changes":[1.2673969E5,3.8898438E1,4.7557812E2,0E0,1.4980469E0,0E0,4.8972656E1,0E0,0E0,1.924292E1,8.03125E0,2.032129E1,0E0,1.5195312E0,0E0,0E0,0E0,0E0,0E0],"parents":[2147483647,0,0,1,1,2,2,4,4,6,6,9,9,10,10,11,11,13,13],"right_children":[2,4,6,-1,8,-1,10,-1,-1,12,14,16,-1,18,-1,-1,-1,-1,-1],"split_conditions":[5.984489E-1,5.0014895E-1,4.9680912E-1,-1.09666765E-1,2.03E2,-1.12281315E-1,7.110967E-1,-1.1448971E-1,-1.1683109E-1,7.991971E-1,7.991971E-1,2.07E2,1.0981735E-1,4.04E2,1.096872E-1,7.491112E-2,9.932316E-2,1.1348846E-1,1.11611E-1],"split_indices":[0,2,2,0,6,0,0,0,0,2,2,6,0,6,0,0,0,0,0],"split_type":[0,0,0,0,0,0,0,0,0,0,0,0,0,0,0,0,0,0,0],"sum_hessian":[1.02277125E5,5.0792637E4,5.1484492E4,2.8290865E4,2.2501773E4,9.492227E1,5.1389566E4,1.4505438E4,7.996334E3,2.1556465E3,4.923392E4,1.4546481E3,7.009984E2,3.1621068E4,1.7612854E4,6.076487E2,8.4699945E2,1.5774042E4,1.5847025E4],"tree_param":{"num_deleted":"0","num_feature":"7","num_nodes":"19","size_leaf_vector":"1"}},{"base_weights":[-2.1003156E-3,-1.1089699E0,1.0918332E0,-1.0960197E-1,-1.1678874E0,-1.3443545E-1,1.1007202E0,-1.15717016E-1,-1.186407E-1,1.0385767E0,1.1033067E0,9.0982693E-1,1.1048899E-1,1.1219943E0,1.09581046E-1,-4.7136404E-2,9.406542E-2,1.13590255E-1,1.11380935E-1],"categories":[],"categories_nodes":[],"categories_segments":[],"categories_sizes":[],"default_left":[0,0,0,0,0,0,0,0,0,0,0,0,0,0,0,0,0,0,0],"id":18,"left_children":[1,3,5,-1,7,-1,9,-1,-1,11,13,15,-1,17,-1,-1,-1,-1,-1],"loss_changes":[1.1327323E5,3.4195312E1,1.0201094E3,0E0,2.861328E-1,0E0,6.3945312E0,0E0,0E0,1.5134033E1,5.0742188E0,2.8046448E1,0E0,1.9628906E-1,0E0,0E0,0E0,0E0,0E0],"parents":[2147483647,0,0,1,1,2,2,4,4,6,6,9,9,10,10,11,11,13,13],"right_children":[2,4,6,-1,8,-1,10,-1,-1,12,14,16,-1,18,-1,-1,-1,-1,-1],"split_conditions":[5.984489E-1,5.9906745E-1,5.9906745E-1,-1.0960197E-1,1.83E2,-1.3443545E-1,7.110967E-1,-1.15717016E-1,-1.186407E-1,6.998525E-1,6.998525E-1,7E0,1.1048899E-1,1.78E2,1.09581046E-1,-4.7136404E-2,9.406542E-2,1.13590255E-1,1.11380935E-1],"split_indices":[0,1,1,0,6,0,0,0,0,1,1,6,0,6,0,0,0,0,0],"split_type":[0,0,0,0,0,0,0,0,0,0,0,0,0,0,0,0,0,0,0],"sum_hessian":[9.354715E4,4.6498637E4,4.704851E4,3.8135805E4,8.362834E3,1.7045682E2,4.6878055E4,5.3375054E3,3.0253293E3,1.8893074E3,4.4988746E4,6.4728864E2,1.2420187E3,1.283752E4,3.2151227E4,1.3819656E1,6.33469E2,4.704884E3,8.132636E3],"tree_param":{"num_deleted":"0","num_feature":"7","num_nodes":"19","size_leaf_vector":"1"}},{"base_weights":[-1.3346669E-3,-1.0976999E0,1.0804461E0,-1.0860558E0,-1.1503091E0,-1.310326E0,1.0897007E0,-1.077767E-1,-1.0974474E-1,-1.07587434E-1,-1.2077838E-1,-1.0730481E-1,-1.442326E-1,-1.1411668E-1,1.0908064E0,1.097812E0,1.0778286E-1,1.03031926E-1,1.1006202E-1],"categories":[],"categories_nodes":[],"categories_segments":[],"categories_sizes":[],"default_left":[0,0,0,0,0,0,0,0,0,0,0,0,0,0,0,0,0,0,0],"id":19,"left_children":[1,3,5,7,9,11,13,-1,-1,-1,-1,-1,-1,-1,15,17,-1,-1,-1],"loss_changes":[1.0141143E5,2.4769531E1,9.536953E2,2.1015625E0,3.1550781E1,3.6645203E0,1.0699609E2,0E0,0E0,0E0,0E0,0E0,0E0,0E0,2.703125E0,4.1328125E0,0E0,0E0,0E0],"parents":[2147483647,0,0,1,1,2,2,3,3,4,4,5,5,6,6,14,14,15,15],"right_children":[2,4,6,8,10,12,14,-1,-1,-1,-1,-1,-1,-1,16,18,-1,-1,-1],"split_conditions":[5.984489E-1,5.9906745E-1,5.9906745E-1,5.0014895E-1,5.0014895E-1,4.9680912E-1,4.9680912E-1,-1.077767E-1,-1.0974474E-1,-1.07587434E-1,-1.2077838E-1,-1.0730481E-1,-1.442326E-1,-1.1411668E-1,7.991971E-1,7.110967E-1,1.0778286E-1,1.03031926E-1,1.1006202E-1],"split_indices":[0,1,1,2,2,2,2,0,0,0,0,0,0,0,2,0,0,0,0],"split_type":[0,0,0,0,0,0,0,0,0,0,0,0,0,0,0,0,0,0,0],"sum_hessian":[8.550318E4,4.246533E4,4.303785E4,3.4787414E4,7.677914E3,1.6541473E2,4.2872438E4,2.0191365E4,1.4596047E4,3.3539614E3,4.3239526E3,6.2391464E1,1.0302326E2,2.0726316E1,4.285171E4,2.7774586E4,1.5077127E4,1.1241057E3,2.6650479E4],"tree_param":{"num_deleted":"0","num_feature":"7","num_nodes":"19","size_leaf_vector":"1"}},{"base_weights":[-8.825609E-5,-1.0875593E0,1.0709876E0,-1.0771947E-1,-1.1340447E-1,-1.273155E-1,1.080097E0,1.0137573E0,1.0829375E0,8.82196E-1,1.0847358E-1,1.0977373E-1,1.0769502E-1,-1.1534776E-1,9.063213E-2],"categories":[],"categories_nodes":[],"categories_segments":[],"categories_sizes":[],"default_left":[0,0,0,0,0,0,0,0,0,0,0,0,0,0,0],"id":20,"left_children":[1,3,5,-1,-1,-1,7,9,11,13,-1,-1,-1,-1,-1],"loss_changes":[9.109214E4,1.7472656E1,8.4271094E2,0E0,0E0,0E0,6.296875E0,1.4237671E1,2.1523438E0,2.9313232E1,0E0,0E0,0E0,0E0,0E0],"parents":[2147483647,0,0,1,1,2,2,6,6,7,7,8,8,9,9],"right_children":[2,4,6,-1,-1,-1,8,10,12,14,-1,-1,-1,-1,-1],"split_conditions":[5.984489E-1,5.9906745E-1,5.9906745E-1,-1.0771947E-1,-1.1340447E-1,-1.273155E-1,7.110967E-1,6.998525E-1,6.998525E-1,6E0,1.0847358E-1,1.0977373E-1,1.0769502E-1,-1.1534776E-1,9.063213E-2],"split_indices":[0,1,1,0,0,0,0,1,1,6,0,0,0,0,0],"split_type":[0,0,0,0,0,0,0,0,0,0,0,0,0,0,0],"sum_hessian":[7.8204516E4,3.8805246E4,3.9399266E4,3.175019E4,7.0550576E3,1.5197612E2,3.924729E4,1.6261771E3,3.7621113E4,5.7458685E2,1.0515902E3,1.0783338E4,2.6837775E4,6.181536E0,5.684053E2],"tree_param":{"num_deleted":"0","num_feature":"7","num_nodes":"15","size_leaf_vector":"1"}},{"base_weights":[1.084624E-3,-1.0701764E0,7.3750263E-1,-1.0627035E-1,-1.0803175E-1,-1.0615232E-1,8.6330694E-1,4.9303278E-1,1.0688175E-1,3.2228273E-1,1.0519847E0,1.2212939E-2,5.8891095E-2,1.01247266E-1,1.0620048E-1],"categories":[],"categories_nodes":[],"categories_segments":[],"categories_sizes":[],"default_left":[0,0,0,0,0,0,0,0,0,0,0,0,0,0,0],"id":21,"left_children":[1,3,5,-1,-1,-1,7,9,-1,11,13,-1,-1,-1,-1],"loss_changes":[5.6224832E4,1.0507812E0,9.55998E3,0E0,0E0,0E0,3.0034082E3,1.3445923E3,0E0,5.760582E2,2.2973633E-1,0E0,0E0,0E0,0E0],"parents":[2147483647,0,0,1,1,2,2,6,6,7,7,9,9,10,10],"right_children":[2,4,6,-1,-1,-1,8,10,-1,12,14,-1,-1,-1,-1],"split_conditions":[5.9906745E-1,5.0014895E-1,4.9680912E-1,-1.0627035E-1,-1.0803175E-1,-1.0615232E-1,6.998525E-1,7.991971E-1,1.0688175E-1,3.69E2,8.388461E-1,1.2212939E-2,5.8891095E-2,1.01247266E-1,1.0620048E-1],"split_indices":[1,2,2,0,0,0,1,2,0,6,2,0,0,0,0],"split_type":[0,0,0,0,0,0,0,0,0,0,0,0,0,0,0],"sum_hessian":[7.126827E4,2.903331E4,4.223496E4,1.6776562E4,1.2256749E4,2.7599336E3,3.9475027E4,1.4090742E4,2.5384287E4,1.079472E4,3.2960222E3,6.166837E3,4.627883E3,6.8741174E2,2.6086106E3],"tree_param":{"num_deleted":"0","num_feature":"7","num_nodes":"15","size_leaf_vector":"1"}},{"base_weights":[1.1221998E-3,-1.0740306E0,1.0557383E0,-1.0561537E-1,-1.09531835E-1,-1.0763102E-1,1.059793E0,8.674628E-1,1.0685228E0,7.85433E-1,1.0551434E-1,1.07511796E-1,1.0562577E-1,-8.5129045E-2,8.0007255E-2],"categories":[],"categories_nodes":[],"categories_segments":[],"categories_sizes":[],"default_left":[0,0,0,0,0,0,0,0,0,0,0,0,0,0,0],"id":22,"left_children":[1,3,5,-1,-1,-1,7,9,11,13,-1,-1,-1,-1,-1],"loss_changes":[7.4583664E4,1.12421875E1,2.881953E2,0E0,0E0,0E0,5.4722656E1,2.1408081E1,1.4257812E0,2.4857666E1,0E0,0E0,0E0,0E0,0E0],"parents":[2147483647,0,0,1,1,2,2,6,6,7,7,8,8,9,9],"right_children":[2,4,6,-1,-1,-1,8,10,12,14,-1,-1,-1,-1,-1],"split_conditions":[5.984489E-1,5.0014895E-1,4.9680912E-1,-1.0561537E-1,-1.09531835E-1,-1.0763102E-1,7.110967E-1,7.991971E-1,7.991971E-1,4E0,1.0551434E-1,1.07511796E-1,1.0562577E-1,-8.5129045E-2,8.0007255E-2],"split_indices":[0,2,2,0,0,0,0,2,2,6,0,0,0,0,0],"split_type":[0,0,0,0,0,0,0,0,0,0,0,0,0,0,0],"sum_hessian":[6.5775766E4,3.2570746E4,3.320502E4,1.7731137E4,1.4839609E4,6.2525497E1,3.3142492E4,1.443384E3,3.1699107E4,1.0080006E3,4.3538348E2,2.0558092E4,1.1141016E4,8.429428E0,9.9957117E2],"tree_param":{"num_deleted":"0","num_feature":"7","num_nodes":"15","size_leaf_vector":"1"}},{"base_weights":[-1.0697749E-3,-1.0483228E0,3.883654E-1,-1.050606E-1,-7.625826E-1,1.8111362E-1,1.040545E0,-9.3628186E-1,-4.3968537E-1,-4.1785624E-2,4.5896184E-1,1.0008277E0,1.050568E-1,-1.005567E0,1.1599081E-1,6.8962693E-1,-6.2214947E-1,-5.431867E-1,3.6403608E-2,2.9743433E-1,5.828156E-1,4.9384338E-1,1.0042746E0,-1.0488012E-1,1.982428E-2,3.905424E-2,-5.6844857E-2,8.556102E-2,2.8314611E-2,3.0220864E-2,-8.128554E-2,-7.696342E-2,-4.014907E-2,-1.07264435E-2,9.871778E-3,2.4795417E-2,3.658204E-2,5.0734337E-2,6.71215E-2,7.804443E-3,6.457723E-2,8.9240246E-2,1.0118425E-1],"categories":[],"categories_nodes":[],"categories_segments":[],"categories_sizes":[],"default_left":[0,0,0,0,0,0,0,0,0,0,0,0,0,0,0,0,0,0,0,0,0,0,0,0,0,0,0,0,0,0,0,0,0,0,0,0,0,0,0,0,0,0,0],"id":23,"left_children":[1,3,5,-1,7,9,11,13,15,17,19,21,-1,23,25,27,29,31,33,35,37,39,41,-1,-1,-1,-1,-1,-1,-1,-1,-1,-1,-1,-1,-1,-1,-1,-1,-1,-1,-1,-1],"loss_changes":[2.4421787E4,9.7890625E0,5.899719E3,0E0,7.009804E0,2.0515022E3,3.1396484E0,6.324814E0,1.0354595E1,7.2062006E2,2.9481104E2,3.2475586E0,0E0,4.371338E0,1.3789756E0,2.4178481E-1,7.6483955E0,7.925641E1,1.4237418E2,2.1569641E1,5.5333008E1,9.8772573E-1,8.9746094E-1,0E0,0E0,0E0,0E0,0E0,0E0,0E0,0E0,0E0,0E0,0E0,0E0,0E0,0E0,0E0,0E0,0E0,0E0,0E0,0E0],"parents":[2147483647,0,0,1,1,2,2,4,4,5,5,6,6,7,7,8,8,9,9,10,10,11,11,13,13,14,14,15,15,16,16,17,17,18,18,19,19,20,20,21,21,22,22],"right_children":[2,4,6,-1,8,10,12,14,16,18,20,22,-1,24,26,28,30,32,34,36,38,40,42,-1,-1,-1,-1,-1,-1,-1,-1,-1,-1,-1,-1,-1,-1,-1,-1,-1,-1,-1,-1],"split_conditions":[5.0014895E-1,4.9680912E-1,7.991971E-1,-1.050606E-1,2.63E2,2.96E2,8.388461E-1,4.9649086E0,2.75E2,9E0,1.433E3,4E0,1.050568E-1,9.9E1,9.264E1,3.805422E0,6E0,4E0,3.3E1,6.97E2,5.398E3,4.1E1,2E1,-1.0488012E-1,1.982428E-2,3.905424E-2,-5.6844857E-2,8.556102E-2,2.8314611E-2,3.0220864E-2,-8.128554E-2,-7.696342E-2,-4.014907E-2,-1.07264435E-2,9.871778E-3,2.4795417E-2,3.658204E-2,5.0734337E-2,6.71215E-2,7.804443E-3,6.457723E-2,8.9240246E-2,1.0118425E-1],"split_indices":[2,2,2,0,6,6,2,5,6,6,6,6,0,4,3,5,4,6,6,6,6,4,6,0,0,0,0,0,0,0,0,0,0,0,0,0,0,0,0,0,0,0,0],"split_type":[0,0,0,0,0,0,0,0,0,0,0,0,0,0,0,0,0,0,0,0,0,0,0,0,0,0,0,0,0,0,0,0,0,0,0,0,0,0,0,0,0,0,0],"sum_hessian":[5.9879227E4,1.6230675E4,4.364855E4,1.60993545E4,1.3132074E2,3.312368E4,1.0524874E4,8.415226E1,4.7168476E1,1.8379707E4,1.4743973E4,2.1411501E3,8.383724E3,7.899533E1,5.156927E0,6.1743674E0,4.099411E1,2.4786992E3,1.5901007E4,6.400273E3,8.3437E3,1.5433331E1,2.1257168E3,7.638091E1,2.614421E0,3.987004E0,1.1699231E0,3.5995839E0,2.5747833E0,6.9110975E0,3.408301E1,9.5232965E2,1.5263696E3,4.8101875E3,1.1090819E4,3.716126E3,2.6841467E3,4.504584E3,3.8391155E3,4.535171E0,1.089816E1,1.4222415E2,1.9834927E3],"tree_param":{"num_deleted":"0","num_feature":"7","num_nodes":"43","size_leaf_vector":"1"}},{"base_weights":[-1.5295437E-3,-1.0655439E0,1.045608E0,-1.0538107E-1,-1.1132973E0,-1.2470897E-1,1.0556291E0,-1.1022649E-1,-1.13440774E-1,9.669839E-1,1.0594001E0,7.904664E-1,1.0603198E-1,1.0735977E-1,1.0532824E-1,-3.9395344E-2,8.249465E-2],"categories":[],"categories_nodes":[],"categories_segments":[],"categories_sizes":[],"default_left":[0,0,0,0,0,0,0,0,0,0,0,0,0,0,0,0,0],"id":24,"left_children":[1,3,5,-1,7,-1,9,-1,-1,11,13,15,-1,-1,-1,-1,-1],"loss_changes":[6.364886E4,1.4703125E1,6.6281445E2,0E0,4.6875E-2,0E0,8.558594E0,0E0,0E0,1.8622437E1,1.2578125E0,1.7169891E1,0E0,0E0,0E0,0E0,0E0],"parents":[2147483647,0,0,1,1,2,2,4,4,6,6,9,9,10,10,11,11],"right_children":[2,4,6,-1,8,-1,10,-1,-1,12,14,16,-1,-1,-1,-1,-1],"split_conditions":[5.984489E-1,5.9906745E-1,5.9906745E-1,-1.0538107E-1,2.38E2,-1.2470897E-1,7.110967E-1,-1.1022649E-1,-1.13440774E-1,6.998525E-1,6.998525E-1,7E0,1.0603198E-1,1.0735977E-1,1.0532824E-1,-3.9395344E-2,8.249465E-2],"split_indices":[0,1,1,0,6,0,0,0,0,1,1,6,0,0,0,0,0],"split_type":[0,0,0,0,0,0,0,0,0,0,0,0,0,0,0,0,0],"sum_hessian":[5.7124734E4,2.8334025E4,2.8790707E4,2.2763922E4,5.5701035E3,1.2475544E2,2.8665951E4,3.6932122E3,1.8768915E3,1.180183E3,2.7485768E4,4.1147247E2,7.687105E2,8.224367E3,1.92614E4,1.1344755E1,4.0012772E2],"tree_param":{"num_deleted":"0","num_feature":"7","num_nodes":"17","size_leaf_vector":"1"}},{"base_weights":[-4.5999694E-3,-1.059008E0,1.0391057E0,-1.0408758E-1,-1.0783261E-1,-1.0563673E-1,1.0430824E0,8.289388E-1,1.0533094E0,7.4809813E-1,1.04014985E-1,1.059397E-1,1.0409812E-1,5.8924627E-2,8.6371064E-2],"categories":[],"categories_nodes":[],"categories_segments":[],"categories_sizes":[],"default_left":[0,0,0,0,0,0,0,0,0,0,0,0,0,0,0],"id":25,"left_children":[1,3,5,-1,-1,-1,7,9,11,13,-1,-1,-1,-1,-1],"loss_changes":[5.6994457E4,7.9023438E0,2.1798828E2,0E0,0E0,0E0,5.601953E1,1.9520264E1,7.558594E-1,1.5346008E1,0E0,0E0,0E0,0E0,0E0],"parents":[2147483647,0,0,1,1,2,2,6,6,7,7,8,8,9,9],"right_children":[2,4,6,-1,-1,-1,8,10,12,14,-1,-1,-1,-1,-1],"split_conditions":[5.984489E-1,5.0014895E-1,4.9680912E-1,-1.0408758E-1,-1.0783261E-1,-1.0563673E-1,7.110967E-1,7.991971E-1,7.991971E-1,1.65E2,1.04014985E-1,1.059397E-1,1.0409812E-1,5.8924627E-2,8.6371064E-2],"split_indices":[0,2,2,0,0,0,0,2,2,6,0,0,0,0,0],"split_type":[0,0,0,0,0,0,0,0,0,0,0,0,0,0,0],"sum_hessian":[5.1788004E4,2.576191E4,2.6026092E4,1.3317198E4,1.2444712E4,4.8796593E1,2.5977295E4,1.1878175E3,2.4789479E4,8.6231134E2,3.255062E2,1.6538242E4,8.251236E3,3.6579913E2,4.9651218E2],"tree_param":{"num_deleted":"0","num_feature":"7","num_nodes":"15","size_leaf_vector":"1"}},{"base_weights":[-4.87398E-3,-1.0531781E0,1.0320544E0,-1.0435306E-1,-1.0917717E0,-1.2414631E0,1.0429577E0,-1.0353353E-1,-1.12394504E-1,-1.0084379E-1,-1.3157833E-1,-1.06164925E-1,1.0443397E0,9.633115E-1,1.0480363E0,8.082636E-2,1.04984E-1,1.05353795E-1,1.03690445E-1],"categories":[],"categories_nodes":[],"categories_segments":[],"categories_sizes":[],"default_left":[0,0,0,0,0,0,0,0,0,0,0,0,0,0,0,0,0,0,0],"id":26,"left_children":[1,3,5,-1,7,9,11,-1,-1,-1,-1,-1,13,15,17,-1,-1,-1,-1],"loss_changes":[5.122241E4,7.5839844E0,5.8853125E2,0E0,7.305664E0,6.391754E-1,6.968555E1,0E0,0E0,0E0,0E0,0E0,6.046875E0,1.3109558E1,2.8710938E-1,0E0,0E0,0E0,0E0],"parents":[2147483647,0,0,1,1,2,2,4,4,5,5,6,6,12,12,13,13,14,14],"right_children":[2,4,6,-1,8,10,12,-1,-1,-1,-1,-1,14,16,18,-1,-1,-1,-1],"split_conditions":[5.984489E-1,5.9906745E-1,5.9906745E-1,-1.0435306E-1,5.0014895E-1,4.9680912E-1,4.9680912E-1,-1.0353353E-1,-1.12394504E-1,-1.0084379E-1,-1.3157833E-1,-1.06164925E-1,7.110967E-1,6.998525E-1,7.991971E-1,8.082636E-2,1.04984E-1,1.05353795E-1,1.03690445E-1],"split_indices":[0,1,1,0,2,2,2,0,0,0,0,0,0,1,2,0,0,0,0],"split_type":[0,0,0,0,0,0,0,0,0,0,0,0,0,0,0,0,0,0,0],"sum_hessian":[4.712003E4,2.3431479E4,2.368855E4,1.876798E4,4.6634985E3,1.12524536E2,2.3576027E4,1.7053179E3,2.9581807E3,3.0732857E1,8.179168E1,1.49678135E1,2.3561059E4,1.0394019E3,2.2521656E4,3.7599948E2,6.634024E2,1.5009822E4,7.5118354E3],"tree_param":{"num_deleted":"0","num_feature":"7","num_nodes":"19","size_leaf_vector":"1"}},{"base_weights":[-3.1566483E-3,-1.0478616E0,1.0267498E0,-1.03922896E-1,-1.0822146E0,-1.2095681E0,1.0377469E0,-1.0317426E-1,-1.1107234E-1,-1.001518E-1,-1.271203E-1,-1.0433066E-1,1.0391108E0,9.4728786E-1,1.0433644E-1,7.776631E-2,1.044574E-1],"categories":[],"categories_nodes":[],"categories_segments":[],"categories_sizes":[],"default_left":[0,0,0,0,0,0,0,0,0,0,0,0,0,0,0,0,0],"id":27,"left_children":[1,3,5,-1,7,9,11,-1,-1,-1,-1,-1,13,15,-1,-1,-1],"loss_changes":[4.6225297E4,5.1992188E0,5.3331055E2,0E0,4.982422E0,9.034729E-2,6.219336E1,0E0,0E0,0E0,0E0,0E0,7.4160156E0,1.5086182E1,0E0,0E0,0E0],"parents":[2147483647,0,0,1,1,2,2,4,4,5,5,6,6,12,12,13,13],"right_children":[2,4,6,-1,8,10,12,-1,-1,-1,-1,-1,14,16,-1,-1,-1],"split_conditions":[5.984489E-1,5.9906745E-1,5.9906745E-1,-1.03922896E-1,5.0014895E-1,4.9680912E-1,4.9355018E-1,-1.0317426E-1,-1.1107234E-1,-1.001518E-1,-1.271203E-1,-1.0433066E-1,7.110967E-1,6.998525E-1,1.0433644E-1,7.776631E-2,1.044574E-1],"split_indices":[0,1,1,0,2,2,2,0,0,0,0,0,0,1,0,0,0],"split_type":[0,0,0,0,0,0,0,0,0,0,0,0,0,0,0,0,0],"sum_hessian":[4.2960375E4,2.1326957E4,2.1633418E4,1.706888E4,4.2580767E3,1.0532845E2,2.152809E4,1.5504137E3,2.707663E3,2.8014364E1,7.731409E1,1.359975E1,2.1514488E4,9.6242163E2,2.0552068E4,3.540703E2,6.0835126E2],"tree_param":{"num_deleted":"0","num_feature":"7","num_nodes":"17","size_leaf_vector":"1"}},{"base_weights":[-7.352743E-4,-1.043075E0,1.0228962E0,-1.0298697E-1,-1.0569226E-1,-1.0302955E-1,1.0268335E0,7.8314364E-1,1.0390953E-1,6.940173E-1,1.0280987E-1,-3.7747808E-2,7.094567E-2],"categories":[],"categories_nodes":[],"categories_segments":[],"categories_sizes":[],"default_left":[0,0,0,0,0,0,0,0,0,0,0,0,0],"id":28,"left_children":[1,3,5,-1,-1,-1,7,9,-1,11,-1,-1,-1],"loss_changes":[4.1652152E4,2.4492188E0,1.602832E2,0E0,0E0,0E0,5.792578E1,1.9935547E1,0E0,1.1791412E1,0E0,0E0,0E0],"parents":[2147483647,0,0,1,1,2,2,6,6,7,7,9,9],"right_children":[2,4,6,-1,-1,-1,8,10,-1,12,-1,-1,-1],"split_conditions":[5.984489E-1,5.0014895E-1,4.9680912E-1,-1.0298697E-1,-1.0569226E-1,-1.0302955E-1,7.110967E-1,7.991971E-1,1.0390953E-1,4E0,1.0280987E-1,-3.7747808E-2,7.094567E-2],"split_indices":[0,2,2,0,0,0,0,2,0,6,0,0,0],"split_type":[0,0,0,0,0,0,0,0,0,0,0,0,0],"sum_hessian":[3.903573E4,1.9341113E4,1.9694617E4,9.938738E3,9.402375E3,3.719747E1,1.965742E4,9.4481946E2,1.8712602E4,6.955708E2,2.4924864E2,9.547216E0,6.8602356E2],"tree_param":{"num_deleted":"0","num_feature":"7","num_nodes":"13","size_leaf_vector":"1"}},{"base_weights":[-2.0286883E-3,-1.0388535E0,1.0166187E0,-1.0318359E-1,-1.0664835E0,-1.2021083E-1,1.0287982E0,-1.02556646E-1,-1.0891318E-1,-1.0101616E-1,1.0301806E0,9.258821E-1,1.03524126E-1,7.408826E-2,1.0346655E-1],"categories":[],"categories_nodes":[],"categories_segments":[],"categories_sizes":[],"default_left":[0,0,0,0,0,0,0,0,0,0,0,0,0,0,0],"id":29,"left_children":[1,3,5,-1,7,-1,9,-1,-1,-1,11,13,-1,-1,-1],"loss_changes":[3.747198E4,2.3085938E0,4.8485547E2,0E0,2.1552734E0,0E0,5.1208984E1,0E0,0E0,0E0,8.431641E0,1.5989624E1,0E0,0E0,0E0],"parents":[2147483647,0,0,1,1,2,2,4,4,6,6,10,10,11,11],"right_children":[2,4,6,-1,8,-1,10,-1,-1,-1,12,14,-1,-1,-1],"split_conditions":[5.984489E-1,5.9906745E-1,5.9906745E-1,-1.0318359E-1,5.0014895E-1,-1.2021083E-1,4.9680912E-1,-1.02556646E-1,-1.0891318E-1,-1.0101616E-1,7.110967E-1,6.9718707E-1,1.03524126E-1,7.408826E-2,1.0346655E-1],"split_indices":[0,1,1,0,2,0,2,0,0,0,0,1,0,0,0],"split_type":[0,0,0,0,0,0,0,0,0,0,0,0,0,0,0],"sum_hessian":[3.5477484E4,1.7581861E4,1.7895623E4,1.4051347E4,3.5305151E3,9.716664E1,1.7798457E4,1.274412E3,2.2561033E3,1.1564012E1,1.7786893E4,8.3161316E2,1.695528E4,3.1082587E2,5.207873E2],"tree_param":{"num_deleted":"0","num_feature":"7","num_nodes":"15","size_leaf_vector":"1"}},{"base_weights":[-6.369543E-4,-1.0350398E0,1.0122086E0,-1.028698E-1,-1.0597681E0,-1.1796396E-1,1.024601E0,-1.02291346E-1,-1.0798748E-1,-9.9491455E-2,1.0259877E0,9.0753907E-1,1.0317375E-1,6.921201E-2,1.0329246E-1],"categories":[],"categories_nodes":[],"categories_segments":[],"categories_sizes":[],"default_left":[0,0,0,0,0,0,0,0,0,0,0,0,0,0,0],"id":30,"left_children":[1,3,5,-1,7,-1,9,-1,-1,-1,11,13,-1,-1,-1],"loss_changes":[3.3789797E4,1.4140625E0,4.4383594E2,0E0,1.2839355E0,0E0,4.6404297E1,0E0,0E0,0E0,1.0091797E1,1.9759155E1,0E0,0E0,0E0],"parents":[2147483647,0,0,1,1,2,2,4,4,6,6,10,10,11,11],"right_children":[2,4,6,-1,8,-1,10,-1,-1,-1,12,14,-1,-1,-1],"split_conditions":[5.984489E-1,5.9906745E-1,5.9906745E-1,-1.028698E-1,5.0014895E-1,-1.1796396E-1,4.9680912E-1,-1.02291346E-1,-1.0798748E-1,-9.9491455E-2,7.110967E-1,6.998525E-1,1.0317375E-1,6.921201E-2,1.0329246E-1],"split_indices":[0,1,1,0,2,0,2,0,0,0,0,1,0,0,0],"split_type":[0,0,0,0,0,0,0,0,0,0,0,0,0,0,0],"sum_hessian":[3.2249707E4,1.595505E4,1.6294657E4,1.2732342E4,3.2227075E3,9.1080734E1,1.6203576E4,1.1558873E3,2.0668203E3,1.0626989E1,1.6192949E4,7.57008E2,1.5435941E4,2.8090982E2,4.760982E2],"tree_param":{"num_deleted":"0","num_feature":"7","num_nodes":"15","size_leaf_vector":"1"}},{"base_weights":[-9.121223E-4,-1.0315777E0,1.0080191E0,-1.0218706E-1,-1.0416182E-1,-1.0074607E-1,1.011932E0,6.977461E-1,1.0286361E-1,5.8857286E-1,1.0165598E-1,5.0739307E-2,6.2758975E-2],"categories":[],"categories_nodes":[],"categories_segments":[],"categories_sizes":[],"default_left":[0,0,0,0,0,0,0,0,0,0,0,0,0],"id":31,"left_children":[1,3,5,-1,-1,-1,7,9,-1,11,-1,-1,-1],"loss_changes":[3.0441734E4,3.4570312E-1,1.1768555E2,0E0,0E0,0E0,7.6771484E1,2.5453308E1,0E0,1.4550781E0,0E0,0E0,0E0],"parents":[2147483647,0,0,1,1,2,2,6,6,7,7,9,9],"right_children":[2,4,6,-1,-1,-1,8,10,-1,12,-1,-1,-1],"split_conditions":[5.984489E-1,5.0014895E-1,4.9680912E-1,-1.0218706E-1,-1.0416182E-1,-1.0074607E-1,7.110967E-1,7.991971E-1,1.0286361E-1,6.034261E-1,1.0165598E-1,5.0739307E-2,6.2758975E-2],"split_indices":[0,2,2,0,0,0,0,2,0,2,0,0,0],"split_type":[0,0,0,0,0,0,0,0,0,0,0,0,0],"sum_hessian":[2.9272537E4,1.4480291E4,1.4792246E4,7.414653E3,7.065638E3,2.8165543E1,1.4764081E4,7.4748315E2,1.4016598E4,5.589312E2,1.8855193E2,1.8598001E2,3.729512E2],"tree_param":{"num_deleted":"0","num_feature":"7","num_nodes":"13","size_leaf_vector":"1"}},{"base_weights":[-4.3585963E-4,-1.028474E0,1.0041064E0,-1.02332495E-1,-1.0483408E-1,-1.17285445E-1,1.0181203E0,8.664451E-1,1.0259271E-1,6.3367605E-1,1.0270081E-1,-2.4754708E-1,6.864176E-2],"categories":[],"categories_nodes":[],"categories_segments":[],"categories_sizes":[],"default_left":[0,0,0,0,0,0,0,0,0,0,0,0,0],"id":32,"left_children":[1,3,5,-1,-1,-1,7,9,-1,11,-1,-1,-1],"loss_changes":[2.7434857E4,2.705078E-1,4.111084E2,0E0,0E0,0E0,1.4919922E1,2.4015625E1,0E0,4.6306297E1,0E0,0E0,0E0],"parents":[2147483647,0,0,1,1,2,2,6,6,7,7,9,9],"right_children":[2,4,6,-1,-1,-1,8,10,-1,12,-1,-1,-1],"split_conditions":[5.984489E-1,5.9906745E-1,5.9906745E-1,-1.02332495E-1,-1.0483408E-1,-1.17285445E-1,7.110967E-1,6.998525E-1,1.0259271E-1,7E0,1.0270081E-1,-2.4754708E-1,6.864176E-2],"split_indices":[0,1,1,0,0,0,0,1,0,6,0,0,0],"split_type":[0,0,0,0,0,0,0,0,0,0,0,0,0],"sum_hessian":[2.6563945E4,1.3128428E4,1.3435519E4,1.0467911E4,2.6605164E3,8.540672E1,1.3350112E4,6.589869E2,1.2691125E4,2.7102585E2,3.8796103E2,3.7545846E0,2.6727124E2],"tree_param":{"num_deleted":"0","num_feature":"7","num_nodes":"13","size_leaf_vector":"1"}},{"base_weights":[-8.656536E-4,-1.02570735E-1,1.0000433E0,6.036089E-1,1.023316E-1,3.672214E-1,7.4123555E-1,3.952316E-1,-1.3281721E0,6.673028E-1,9.100617E-1,-2.9076098E-2,4.6167403E-2,9.099683E-3,-2.4809475E-1,6.98071E-2,5.2613217E-2,9.2061184E-2,-1.2686178E-2],"categories":[],"categories_nodes":[],"categories_segments":[],"categories_sizes":[],"default_left":[0,0,0,0,0,0,0,0,0,0,0,0,0,0,0,0,0,0,0],"id":33,"left_children":[1,-1,3,5,-1,7,9,11,13,15,17,-1,-1,-1,-1,-1,-1,-1,-1],"loss_changes":[2.4757613E4,0E0,1.1203711E2,2.1834244E1,0E0,1.249295E1,4.740967E0,1.1469494E1,7.3019967E0,9.4332886E-1,1.5142899E0,0E0,0E0,0E0,0E0,0E0,0E0,0E0,0E0],"parents":[2147483647,0,0,2,2,3,3,5,5,6,6,7,7,8,8,9,9,10,10],"right_children":[2,-1,4,6,-1,8,10,12,14,16,18,-1,-1,-1,-1,-1,-1,-1,-1],"split_conditions":[5.984489E-1,-1.02570735E-1,7.110967E-1,1.11E2,1.023316E-1,1.02E2,3.584E3,6E0,3.9E1,4.678145E0,4.970682E0,-2.9076098E-2,4.6167403E-2,9.099683E-3,-2.4809475E-1,6.98071E-2,5.2613217E-2,9.2061184E-2,-1.2686178E-2],"split_indices":[0,0,0,6,0,6,6,6,4,5,5,0,0,0,0,0,0,0,0],"split_type":[0,0,0,0,0,0,0,0,0,0,0,0,0,0,0,0,0,0,0],"sum_hessian":[2.4133562E4,1.1924208E4,1.2209354E4,6.785039E2,1.153085E4,2.5102007E2,4.2748386E2,2.4769469E2,3.3253746E0,3.0073703E2,1.2674682E2,2.1574114E1,2.2612057E2,1.9033027E0,1.4220719E0,2.4368175E2,5.7055286E1,1.25581276E2,1.1655426E0],"tree_param":{"num_deleted":"0","num_feature":"7","num_nodes":"19","size_leaf_vector":"1"}},{"base_weights":[4.001082E-4,-1.0204654E-1,6.701904E-1,1.951041E-1,1.0179017E-1,-4.1316286E-2,4.0655452E-1,-4.5300794E-1,4.6879105E-2,2.826721E-1,5.493634E-1,-6.566823E-2,-2.7769584E-2,9.579423E-3,-3.2853227E-2,2.4708478E-2,3.711425E-2,4.4457193E-2,6.1525144E-2],"categories":[],"categories_nodes":[],"categories_segments":[],"categories_sizes":[],"default_left":[0,0,0,0,0,0,0,0,0,0,0,0,0,0,0,0,0,0,0],"id":34,"left_children":[1,-1,3,5,-1,7,9,11,13,15,17,-1,-1,-1,-1,-1,-1,-1,-1],"loss_changes":[1.5005752E4,0E0,2.1888481E3,2.8003027E2,0E0,9.607364E1,5.2156067E1,1.6486267E1,4.0055576E1,4.8998413E0,9.202545E0,0E0,0E0,0E0,0E0,0E0,0E0,0E0,0E0],"parents":[2147483647,0,0,2,2,3,3,5,5,6,6,7,7,8,8,9,9,10,10],"right_children":[2,-1,4,6,-1,8,10,12,14,16,18,-1,-1,-1,-1,-1,-1,-1,-1],"split_conditions":[5.9906745E-1,-1.0204654E-1,6.998525E-1,1.69E2,1.0179017E-1,1E1,1.433E3,5E0,4.0333E2,6.97E2,3.879E3,-6.566823E-2,-2.7769584E-2,9.579423E-3,-3.2853227E-2,2.4708478E-2,3.711425E-2,4.4457193E-2,6.1525144E-2],"split_indices":[1,0,1,6,0,6,6,6,3,6,6,0,0,0,0,0,0,0,0],"split_type":[0,0,0,0,0,0,0,0,0,0,0,0,0,0,0,0,0,0,0],"sum_hessian":[2.194375E4,8.69329E3,1.325046E4,5.600256E3,7.650204E3,2.6443933E3,2.9558625E3,4.6582224E2,2.1785713E3,1.584412E3,1.3714506E3,2.1421054E2,2.516117E2,1.9280908E3,2.5048038E2,1.1326106E3,4.5180136E2,5.32417E2,8.390336E2],"tree_param":{"num_deleted":"0","num_feature":"7","num_nodes":"19","size_leaf_vector":"1"}},{"base_weights":[-1.9374664E-3,-1.0184671E-1,6.4164346E-1,1.7793292E-1,1.0157659E-1,-4.2057082E-2,3.6699647E-1,-4.956786E-1,2.182334E-2,2.4981289E-1,5.09096E-1,-8.199588E-2,-3.4778155E-2,1.2081782E-2,-1.5529864E-2,2.0999163E-2,3.2744516E-2,4.11419E-2,5.6766566E-2],"categories":[],"categories_nodes":[],"categories_segments":[],"categories_sizes":[],"default_left":[0,0,0,0,0,0,0,0,0,0,0,0,0,0,0,0,0,0,0],"id":35,"left_children":[1,-1,3,5,-1,7,9,11,13,15,17,-1,-1,-1,-1,-1,-1,-1,-1],"loss_changes":[1.3277797E4,0E0,2.155809E3,2.3087502E2,0E0,7.437744E1,4.9581757E1,1.4910179E1,3.947963E1,4.9949875E0,7.4794006E0,0E0,0E0,0E0,0E0,0E0,0E0,0E0,0E0],"parents":[2147483647,0,0,2,2,3,3,5,5,6,6,7,7,8,8,9,9,10,10],"right_children":[2,-1,4,6,-1,8,10,12,14,16,18,-1,-1,-1,-1,-1,-1,-1,-1],"split_conditions":[5.9906745E-1,-1.0184671E-1,6.998525E-1,1.56E2,1.0157659E-1,7E0,1.433E3,3E0,1.2842E2,6.08E2,3.584E3,-8.199588E-2,-3.4778155E-2,1.2081782E-2,-1.5529864E-2,2.0999163E-2,3.2744516E-2,4.11419E-2,5.6766566E-2],"split_indices":[1,0,1,6,0,6,6,6,3,6,6,0,0,0,0,0,0,0,0],"split_type":[0,0,0,0,0,0,0,0,0,0,0,0,0,0,0,0,0,0,0],"sum_hessian":[2.0293646E4,7.867084E3,1.24265625E4,5.549564E3,6.876998E3,2.5653545E3,2.9842097E3,3.158329E2,2.2495215E3,1.6370012E3,1.3472085E3,9.7503E1,2.1832988E2,1.4432172E3,8.063044E2,1.0844436E3,5.525576E2,5.0801382E2,8.391947E2],"tree_param":{"num_deleted":"0","num_feature":"7","num_nodes":"19","size_leaf_vector":"1"}},{"base_weights":[-1.3106882E-3,-1.0216737E0,9.911288E-1,-1.0154337E-1,-1.0409031E-1,-1.13043524E-1,1.0071682E0,-9.774608E-2,1.0091732E0,8.375364E-1,1.0186565E-1,6.2567465E-2,1.01709805E-1],"categories":[],"categories_nodes":[],"categories_segments":[],"categories_sizes":[],"default_left":[0,0,0,0,0,0,0,0,0,0,0,0,0],"id":36,"left_children":[1,3,5,-1,-1,-1,7,-1,9,11,-1,-1,-1],"loss_changes":[1.9141643E4,6.1523438E-2,3.272119E2,0E0,0E0,0E0,3.8833008E1,0E0,1.4613281E1,1.850415E1,0E0,0E0,0E0],"parents":[2147483647,0,0,1,1,2,2,6,6,8,8,9,9],"right_children":[2,4,6,-1,-1,-1,8,-1,10,12,-1,-1,-1],"split_conditions":[5.984489E-1,5.9906745E-1,5.9906745E-1,-1.0154337E-1,-1.0409031E-1,-1.13043524E-1,4.9680912E-1,-9.774608E-2,7.110967E-1,6.998525E-1,1.0186565E-1,6.2567465E-2,1.01709805E-1],"split_indices":[0,1,1,0,0,0,2,0,0,1,0,0,0],"split_type":[0,0,0,0,0,0,0,0,0,0,0,0,0],"sum_hessian":[1.8900555E4,9.31916E3,9.5813955E3,7.076607E3,2.2425532E3,7.137183E1,9.510023E3,9.107116E0,9.500916E3,5.021386E2,8.998777E3,2.3240836E2,2.6973026E2],"tree_param":{"num_deleted":"0","num_feature":"7","num_nodes":"13","size_leaf_vector":"1"}},{"base_weights":[-1.5627785E-3,-1.0195464E-1,9.8884004E-1,-1.11272395E-1,1.0043634E0,-9.6620105E-2,1.0064833E0,8.176018E-1,1.0168276E-1,5.943774E-2,1.01425104E-1],"categories":[],"categories_nodes":[],"categories_segments":[],"categories_sizes":[],"default_left":[0,0,0,0,0,0,0,0,0,0,0],"id":37,"left_children":[1,-1,3,-1,5,-1,7,9,-1,-1,-1],"loss_changes":[1.7261979E4,0E0,2.8423047E2,0E0,3.695996E1,0E0,1.5985352E1,1.9237152E1,0E0,0E0,0E0],"parents":[2147483647,0,0,2,2,4,4,6,6,7,7],"right_children":[2,-1,4,-1,6,-1,8,10,-1,-1,-1],"split_conditions":[5.984489E-1,-1.0195464E-1,5.9906745E-1,-1.11272395E-1,4.9680912E-1,-9.6620105E-2,7.110967E-1,6.998525E-1,1.0168276E-1,5.943774E-2,1.01425104E-1],"split_indices":[0,0,1,0,2,0,0,1,0,0,0],"split_type":[0,0,0,0,0,0,0,0,0,0,0],"sum_hessian":[1.7119346E4,8.442109E3,8.677236E3,6.310659E1,8.614129E3,8.768253E0,8.605361E3,4.509681E2,8.154393E3,2.1309639E2,2.3787173E2],"tree_param":{"num_deleted":"0","num_feature":"7","num_nodes":"11","size_leaf_vector":"1"}},{"base_weights":[7.501355E-4,-1.0176779E-1,9.8519194E-1,-1.0999401E-1,1.0011926E0,-9.600826E-2,1.003494E0,7.9563284E-1,1.0151845E-1,5.429646E-2,1.0124471E-1],"categories":[],"categories_nodes":[],"categories_segments":[],"categories_sizes":[],"default_left":[0,0,0,0,0,0,0,0,0,0,0],"id":38,"left_children":[1,-1,3,-1,5,-1,7,9,-1,-1,-1],"loss_changes":[1.5618157E4,0E0,2.6537744E2,0E0,3.6447266E1,0E0,1.8274414E1,2.260965E1,0E0,0E0,0E0],"parents":[2147483647,0,0,2,2,4,4,6,6,7,7],"right_children":[2,-1,4,-1,6,-1,8,10,-1,-1,-1],"split_conditions":[5.984489E-1,-1.0176779E-1,5.9906745E-1,-1.0999401E-1,4.9680912E-1,-9.600826E-2,7.110967E-1,6.998525E-1,1.0151845E-1,5.429646E-2,1.0124471E-1],"split_indices":[0,0,1,0,2,0,0,1,0,0,0],"split_type":[0,0,0,0,0,0,0,0,0,0,0],"sum_hessian":[1.5575918E4,7.6557905E3,7.9201274E3,5.979779E1,7.8603296E3,8.724962E0,7.8516045E3,4.2175467E2,7.42985E3,1.9639114E2,2.2536353E2],"tree_param":{"num_deleted":"0","num_feature":"7","num_nodes":"11","size_leaf_vector":"1"}},{"base_weights":[-3.2755872E-3,-1.01221494E-1,6.0806704E-1,-1.0106959E-1,7.242738E-1,3.501573E-1,1.00999236E-1,2.0215839E-1,9.915124E-2,-4.3582585E-2,2.3603601E-2],"categories":[],"categories_nodes":[],"categories_segments":[],"categories_sizes":[],"default_left":[0,0,0,0,0,0,0,0,0,0,0],"id":39,"left_children":[1,-1,3,-1,5,7,-1,9,-1,-1,-1],"loss_changes":[8.678226E3,0E0,1.6487822E3,0E0,8.734697E2,3.3594403E2,0E0,6.2319763E1,0E0,0E0,0E0],"parents":[2147483647,0,0,2,2,4,4,5,5,7,7],"right_children":[2,-1,4,-1,6,8,-1,10,-1,-1,-1],"split_conditions":[5.9906745E-1,-1.01221494E-1,4.9680912E-1,-1.0106959E-1,6.998525E-1,7.991971E-1,1.00999236E-1,7E0,9.915124E-2,-4.3582585E-2,2.3603601E-2],"split_indices":[1,0,2,0,1,2,0,6,0,0,0],"split_type":[0,0,0,0,0,0,0,0,0,0,0],"sum_hessian":[1.4067585E4,5.307541E3,8.760044E3,5.8622455E2,8.173819E3,3.540351E3,4.633468E3,2.8776262E3,6.62725E2,1.4450172E2,2.7331243E3],"tree_param":{"num_deleted":"0","num_feature":"7","num_nodes":"11","size_leaf_vector":"1"}},{"base_weights":[-3.8613968E-3,-1.0110807E-1,5.885253E-1,1.4408754E-1,1.0084008E0,-1.0070057E-1,3.238689E-1,5.980351E-1,1.00883715E-1,1.8185936E-1,9.871976E-1,4.200753E-3,8.098139E-2,1.8483736E-2,-5.2528728E-2,9.0203315E-2,1.0083868E-1],"categories":[],"categories_nodes":[],"categories_segments":[],"categories_sizes":[],"default_left":[0,0,0,0,0,0,0,0,0,0,0,0,0,0,0,0,0],"id":40,"left_children":[1,-1,3,5,7,-1,9,11,-1,13,15,-1,-1,-1,-1,-1,-1],"loss_changes":[7.7535894E3,0E0,1.5267742E3,8.2316864E2,1.4990234E-1,0E0,3.238442E2,7.8137255E-1,0E0,6.0661087E0,1.8457031E-1,0E0,0E0,0E0,0E0,0E0,0E0],"parents":[2147483647,0,0,2,2,3,3,4,4,6,6,7,7,9,9,10,10],"right_children":[2,-1,4,6,8,-1,10,12,-1,14,16,-1,-1,-1,-1,-1,-1],"split_conditions":[5.9906745E-1,-1.0110807E-1,6.998525E-1,5.0014895E-1,5.0014895E-1,-1.0070057E-1,7.991971E-1,7.4090487E-1,1.00883715E-1,1.91766E3,8.388461E-1,4.200753E-3,8.098139E-2,1.8483736E-2,-5.2528728E-2,9.0203315E-2,1.0083868E-1],"split_indices":[1,0,1,2,2,0,2,1,0,3,2,0,0,0,0,0,0],"split_type":[0,0,0,0,0,0,0,0,0,0,0,0,0,0,0,0,0],"sum_hessian":[1.2992919E4,4.8114434E3,8.1814756E3,3.975139E3,4.2063364E3,5.363606E2,3.4387783E3,5.9244785E0,4.200412E3,2.8334497E3,6.053285E2,1.9646429E0,3.9598358E0,2.822303E3,1.1146926E1,1.2928267E2,4.760458E2],"tree_param":{"num_deleted":"0","num_feature":"7","num_nodes":"17","size_leaf_vector":"1"}},{"base_weights":[-2.6451226E-3,-1.0155471E-1,9.782623E-1,-1.0629429E-1,9.932358E-1,6.7147255E-1,1.0122012E-1,3.426861E-1,1.00647144E-1,-7.030582E-2,3.672388E-2],"categories":[],"categories_nodes":[],"categories_segments":[],"categories_sizes":[],"default_left":[0,0,0,0,0,0,0,0,0,0,0],"id":41,"left_children":[1,-1,3,-1,5,7,-1,9,-1,-1,-1],"loss_changes":[1.1972434E4,0E0,1.8815869E2,0E0,3.6408203E1,3.7242386E1,0E0,4.7191715E0,0E0,0E0,0E0],"parents":[2147483647,0,0,2,2,4,4,5,5,7,7],"right_children":[2,-1,4,-1,6,8,-1,10,-1,-1,-1],"split_conditions":[5.984489E-1,-1.0155471E-1,5.9906745E-1,-1.0629429E-1,7.110967E-1,6.998525E-1,1.0122012E-1,8.24E0,1.00647144E-1,-7.030582E-2,3.672388E-2],"split_indices":[0,0,1,0,0,1,0,3,0,0,0],"split_type":[0,0,0,0,0,0,0,0,0,0,0],"sum_hessian":[1.2047999E4,5.927316E3,6.1206836E3,4.4062298E1,6.076621E3,3.402587E2,5.7363623E3,1.7274251E2,1.6751619E2,3.3287826E0,1.6941373E2],"tree_param":{"num_deleted":"0","num_feature":"7","num_nodes":"11","size_leaf_vector":"1"}},{"base_weights":[-4.4594545E-4,-1.01404786E-1,9.7645944E-1,-1.0524263E-1,9.9156225E-1,6.849212E-1,1.0110783E-1,4.1124362E-1,1.0048377E-1,6.215768E-2,2.6976814E-2],"categories":[],"categories_nodes":[],"categories_segments":[],"categories_sizes":[],"default_left":[0,0,0,0,0,0,0,0,0,0,0],"id":42,"left_children":[1,-1,3,-1,5,7,-1,9,-1,-1,-1],"loss_changes":[1.0842424E4,0E0,1.7189746E2,0E0,3.243164E1,2.8856186E1,0E0,5.244047E0,0E0,0E0,0E0],"parents":[2147483647,0,0,2,2,4,4,5,5,7,7],"right_children":[2,-1,4,-1,6,8,-1,10,-1,-1,-1],"split_conditions":[5.984489E-1,-1.01404786E-1,5.9906745E-1,-1.0524263E-1,7.110967E-1,6.998525E-1,1.0110783E-1,4.13429E0,1.0048377E-1,6.215768E-2,2.6976814E-2],"split_indices":[0,0,1,0,0,1,0,5,0,0,0],"split_type":[0,0,0,0,0,0,0,0,0,0,0],"sum_hessian":[1.0947806E4,5.3729688E3,5.574837E3,4.0684258E1,5.534153E3,3.3330154E2,5.2008516E3,1.8086403E2,1.5243753E2,7.136756E1,1.0949646E2],"tree_param":{"num_deleted":"0","num_feature":"7","num_nodes":"11","size_leaf_vector":"1"}},{"base_weights":[-5.703708E-4,-1.0126735E-1,9.7404134E-1,-1.0442761E-1,9.8965573E-1,6.740091E-1,1.0099715E-1,3.9956772E-1,1.00301825E-1,2.5169635E-2,9.852932E-2],"categories":[],"categories_nodes":[],"categories_segments":[],"categories_sizes":[],"default_left":[0,0,0,0,0,0,0,0,0,0,0],"id":43,"left_children":[1,-1,3,-1,5,7,-1,9,-1,-1,-1],"loss_changes":[9.783843E3,0E0,1.6027539E2,0E0,3.1476074E1,2.7251144E1,0E0,1.4357435E1,0E0,0E0,0E0],"parents":[2147483647,0,0,2,2,4,4,5,5,7,7],"right_children":[2,-1,4,-1,6,8,-1,10,-1,-1,-1],"split_conditions":[5.984489E-1,-1.0126735E-1,5.9906745E-1,-1.0442761E-1,7.110967E-1,6.998525E-1,1.0099715E-1,7.960875E-1,1.00301825E-1,2.5169635E-2,9.852932E-2],"split_indices":[0,0,1,0,0,1,0,2,0,0,0],"split_type":[0,0,0,0,0,0,0,0,0,0,0],"sum_hessian":[9.916662E3,4.8647427E3,5.051919E3,3.8277622E1,5.0136416E3,3.0524414E2,4.7083975E3,1.676305E2,1.3761366E2,1.3498268E2,3.2647808E1],"tree_param":{"num_deleted":"0","num_feature":"7","num_nodes":"11","size_leaf_vector":"1"}},{"base_weights":[-3.5701024E-3,-1.0114472E-1,9.704266E-1,-1.0333395E-1,9.855935E-1,6.4052355E-1,1.0089351E-1,3.616121E-1,9.9053276E-1,-9.418199E-2,4.3713506E-2,5.5461485E-2,1.0011599E-1],"categories":[],"categories_nodes":[],"categories_segments":[],"categories_sizes":[],"default_left":[0,0,0,0,0,0,0,0,0,0,0,0,0],"id":44,"left_children":[1,-1,3,-1,5,7,-1,9,11,-1,-1,-1,-1],"loss_changes":[8.810413E3,0E0,1.3972803E2,0E0,3.584424E1,2.793E1,0E0,1.6441614E1,3.740692E-2,0E0,0E0,0E0,0E0],"parents":[2147483647,0,0,2,2,4,4,5,5,7,7,8,8],"right_children":[2,-1,4,-1,6,8,-1,10,12,-1,-1,-1,-1],"split_conditions":[5.984489E-1,-1.0114472E-1,5.9906745E-1,-1.0333395E-1,7.110967E-1,6.9718707E-1,1.0089351E-1,5.1241654E-1,6.998525E-1,-9.418199E-2,4.3713506E-2,5.5461485E-2,1.0011599E-1],"split_indices":[0,0,1,0,0,1,0,2,1,0,0,0,0],"split_type":[0,0,0,0,0,0,0,0,0,0,0,0,0],"sum_hessian":[8.972933E3,4.409751E3,4.563182E3,3.3775734E1,4.5294062E3,2.8877393E2,4.2406323E3,1.61841E2,1.26932915E2,8.23552E0,1.5360548E2,4.2866426E0,1.2264627E2],"tree_param":{"num_deleted":"0","num_feature":"7","num_nodes":"13","size_leaf_vector":"1"}},{"base_weights":[-5.236093E-3,-1.0103085E-1,9.6884423E-1,-1.0242597E-1,9.839466E-1,6.302318E-1,1.0080427E-1,3.6617815E-1,9.99145E-2,2.0169316E-2,9.817085E-2],"categories":[],"categories_nodes":[],"categories_segments":[],"categories_sizes":[],"default_left":[0,0,0,0,0,0,0,0,0,0,0],"id":45,"left_children":[1,-1,3,-1,5,7,-1,9,-1,-1,-1],"loss_changes":[7.948233E3,0E0,1.2510791E2,0E0,3.4244385E1,2.5319016E1,0E0,1.5520763E1,0E0,0E0,0E0],"parents":[2147483647,0,0,2,2,4,4,5,5,7,7],"right_children":[2,-1,4,-1,6,8,-1,10,-1,-1,-1],"split_conditions":[5.984489E-1,-1.0103085E-1,5.9906745E-1,-1.0242597E-1,7.110967E-1,6.998525E-1,1.0080427E-1,7.991971E-1,9.99145E-2,2.0169316E-2,9.817085E-2],"split_indices":[0,0,1,0,0,1,0,2,0,0,0],"split_type":[0,0,0,0,0,0,0,0,0,0,0],"sum_hessian":[8.116551E3,3.9947075E3,4.1218433E3,3.0495092E1,4.0913481E3,2.626704E2,3.8286777E3,1.5425398E2,1.0841642E2,1.2277353E2,3.1480463E1],"tree_param":{"num_deleted":"0","num_feature":"7","num_nodes":"11","size_leaf_vector":"1"}},{"base_weights":[3.2684937E-4,-1.0092819E-1,9.6703637E-1,-1.0158582E-1,9.82124E-1,6.376672E-1,1.0072116E-1,4.0243438E-1,9.9745214E-2,8.117185E-3,6.10676E-2],"categories":[],"categories_nodes":[],"categories_segments":[],"categories_sizes":[],"default_left":[0,0,0,0,0,0,0,0,0,0,0],"id":46,"left_children":[1,-1,3,-1,5,7,-1,9,-1,-1,-1],"loss_changes":[7.2194727E3,0E0,1.14048096E2,0E0,3.1770508E1,2.1379509E1,0E0,1.0473181E1,0E0,0E0,0E0],"parents":[2147483647,0,0,2,2,4,4,5,5,7,7],"right_children":[2,-1,4,-1,6,8,-1,10,-1,-1,-1],"split_conditions":[5.984489E-1,-1.0092819E-1,5.9906745E-1,-1.0158582E-1,7.110967E-1,6.998525E-1,1.0072116E-1,1.22E2,9.9745214E-2,8.117185E-3,6.10676E-2],"split_indices":[0,0,1,0,0,1,0,6,0,0,0],"split_type":[0,0,0,0,0,0,0,0,0,0,0],"sum_hessian":[7.3950137E3,3.6172249E3,3.7777886E3,2.8026783E1,3.749762E3,2.5635654E2,3.4934053E3,1.5629019E2,1.0006635E2,6.2011864E1,9.427833E1],"tree_param":{"num_deleted":"0","num_feature":"7","num_nodes":"11","size_leaf_vector":"1"}},{"base_weights":[-1.3665496E-3,-1.0083449E-1,9.597531E-1,-1.0093228E-1,9.752516E-1,5.44873E-1,1.00649886E-1,2.3629327E-1,9.962772E-2,-2.0004641E-2,5.6230582E-2],"categories":[],"categories_nodes":[],"categories_segments":[],"categories_sizes":[],"default_left":[0,0,0,0,0,0,0,0,0,0,0],"id":47,"left_children":[1,-1,3,-1,5,7,-1,9,-1,-1,-1],"loss_changes":[6.4875635E3,0E0,1.0565161E2,0E0,4.5221436E1,3.2158455E1,0E0,1.9948399E1,0E0,0E0,0E0],"parents":[2147483647,0,0,2,2,4,4,5,5,7,7],"right_children":[2,-1,4,-1,6,8,-1,10,-1,-1,-1],"split_conditions":[5.984489E-1,-1.0083449E-1,5.9906745E-1,-1.0093228E-1,7.110967E-1,6.998525E-1,1.00649886E-1,1.65E2,9.962772E-2,-2.0004641E-2,5.6230582E-2],"split_indices":[0,0,1,0,0,1,0,6,0,0,0],"split_type":[0,0,0,0,0,0,0,0,0,0,0],"sum_hessian":[6.7012295E3,3.2725178E3,3.4287114E3,2.6275785E1,3.4024358E3,2.3155717E2,3.1708787E3,1.3844185E2,9.3115326E1,5.936855E1,7.90733E1],"tree_param":{"num_deleted":"0","num_feature":"7","num_nodes":"11","size_leaf_vector":"1"}},{"base_weights":[-3.047889E-3,-1.0074891E-1,9.562983E-1,3.999463E-1,1.0057747E-1,-9.7893484E-2,4.6682537E-1,3.2817197E-1,9.854487E-2,-6.971585E-2,4.1099004E-2],"categories":[],"categories_nodes":[],"categories_segments":[],"categories_sizes":[],"default_left":[0,0,0,0,0,0,0,0,0,0,0],"id":48,"left_children":[1,-1,3,5,-1,-1,7,9,-1,-1,-1],"loss_changes":[5.8459214E3,0E0,8.501245E1,2.3979572E1,0E0,0E0,1.7218979E1,1.6759342E1,0E0,0E0,0E0],"parents":[2147483647,0,0,2,2,3,3,6,6,7,7],"right_children":[2,-1,4,6,-1,-1,8,10,-1,-1,-1],"split_conditions":[5.984489E-1,-1.0074891E-1,7.110967E-1,5.0014895E-1,1.0057747E-1,-9.7893484E-2,7.991971E-1,1.1E1,9.854487E-2,-6.971585E-2,4.1099004E-2],"split_indices":[0,0,0,2,0,0,2,6,0,0,0],"split_type":[0,0,0,0,0,0,0,0,0,0,0],"sum_hessian":[6.0647085E3,2.962697E3,3.1020115E3,2.5407506E2,2.8479363E3,1.1122347E1,2.4295271E2,1.9298985E2,4.996286E1,1.38688135E1,1.7912103E2],"tree_param":{"num_deleted":"0","num_feature":"7","num_nodes":"11","size_leaf_vector":"1"}},{"base_weights":[-1.7521739E-3,-1.0041642E-1,5.522206E-1,1.279129E-1,1.00126E0,-9.996306E-2,2.8470364E-1,3.4714326E-2,1.0017826E-1,1.574032E-1,9.725065E-2,9.039192E-5,3.0134434E-2],"categories":[],"categories_nodes":[],"categories_segments":[],"categories_sizes":[],"default_left":[0,0,0,0,0,0,0,0,0,0,0,0,0],"id":49,"left_children":[1,-1,3,5,7,-1,9,-1,-1,11,-1,-1,-1],"loss_changes":[3.0649917E3,0E0,6.771852E2,3.2361597E2,2.4230957E-1,0E0,1.4050143E2,0E0,0E0,3.0562336E1,0E0,0E0,0E0],"parents":[2147483647,0,0,2,2,3,3,4,4,6,6,9,9],"right_children":[2,-1,4,6,8,-1,10,-1,-1,12,-1,-1,-1],"split_conditions":[5.9906745E-1,-1.0041642E-1,6.998525E-1,5.0014895E-1,5.0014895E-1,-9.996306E-2,7.991971E-1,3.4714326E-2,1.0017826E-1,1.65E2,9.725065E-2,9.039192E-5,3.0134434E-2],"split_indices":[1,0,1,2,2,0,2,0,0,6,0,0,0],"split_type":[0,0,0,0,0,0,0,0,0,0,0,0,0],"sum_hessian":[5.517436E3,1.9635626E3,3.5538733E3,1.8279174E3,1.725956E3,2.224948E2,1.6054225E3,1.9086108E0,1.7240475E3,1.3557292E3,2.4969325E2,6.500126E2,7.057167E2],"tree_param":{"num_deleted":"0","num_feature":"7","num_nodes":"13","size_leaf_vector":"1"}},{"base_weights":[-3.4794377E-3,-1.0067218E-1,9.4508094E-1,3.3243212E-1,1.0049164E-1,5.1040914E-2,5.30201E-1,2.2259782E-1,-5.1130986E-1,4.1538844E-1,7.1981925E-1,2.6968002E-2,-1.0122647E-1,-1.7423932E-1,-3.5812814E-2,2.850402E-3,4.630762E-2,8.111684E-2,3.4466002E-2],"categories":[],"categories_nodes":[],"categories_segments":[],"categories_sizes":[],"default_left":[0,0,0,0,0,0,0,0,0,0,0,0,0,0,0,0,0,0,0],"id":50,"left_children":[1,-1,3,5,-1,7,9,11,13,15,17,-1,-1,-1,-1,-1,-1,-1,-1],"loss_changes":[4.86734E3,0E0,9.604028E1,1.3073866E1,0E0,9.5946E0,2.7084503E0,4.6914344E0,3.7652116E0,1.6179037E0,1.4591198E0,0E0,0E0,0E0,0E0,0E0,0E0,0E0,0E0],"parents":[2147483647,0,0,2,2,3,3,5,5,6,6,7,7,8,8,9,9,10,10],"right_children":[2,-1,4,6,-1,8,10,12,14,16,18,-1,-1,-1,-1,-1,-1,-1,-1],"split_conditions":[5.984489E-1,-1.0067218E-1,7.110967E-1,1.11E2,1.0049164E-1,1.496E2,1.933E3,9.5E1,4E0,1.2E1,7.3981E2,2.6968002E-2,-1.0122647E-1,-1.7423932E-1,-3.5812814E-2,2.850402E-3,4.630762E-2,8.111684E-2,3.4466002E-2],"split_indices":[0,0,0,6,0,3,6,6,6,4,3,0,0,0,0,0,0,0,0],"split_type":[0,0,0,0,0,0,0,0,0,0,0,0,0,0,0,0,0,0,0],"sum_hessian":[5.112709E3,2.4847056E3,2.6280034E3,2.3441472E2,2.3935886E3,9.727176E1,1.3714296E2,7.499663E1,2.2275131E1,8.7408394E1,4.9734554E1,7.2995125E1,2.0015085E0,1.3168947E0,2.0958237E1,9.767083E0,7.764131E1,3.906118E1,1.0673375E1],"tree_param":{"num_deleted":"0","num_feature":"7","num_nodes":"19","size_leaf_vector":"1"}},{"base_weights":[-1.604261E-3,-1.0060258E-1,9.4359684E-1,-9.970619E-2,9.621889E-1,5.0874424E-1,1.00436345E-1,2.3591977E-1,9.9165216E-2,9.137E-3,9.623676E-2],"categories":[],"categories_nodes":[],"categories_segments":[],"categories_sizes":[],"default_left":[0,0,0,0,0,0,0,0,0,0,0],"id":51,"left_children":[1,-1,3,-1,5,7,-1,9,-1,-1,-1],"loss_changes":[4.4092E3,0E0,8.728955E1,0E0,4.4821777E1,2.6608856E1,0E0,1.3720797E1,0E0,0E0,0E0],"parents":[2147483647,0,0,2,2,4,4,5,5,7,7],"right_children":[2,-1,4,-1,6,8,-1,10,-1,-1,-1],"split_conditions":[5.984489E-1,-1.0060258E-1,5.9906745E-1,-9.970619E-2,7.110967E-1,6.998525E-1,1.00436345E-1,7.991971E-1,9.9165216E-2,9.137E-3,9.623676E-2],"split_indices":[0,0,1,0,0,1,0,2,0,0,0],"split_type":[0,0,0,0,0,0,0,0,0,0,0],"sum_hessian":[4.642293E3,2.2506099E3,2.3916833E3,2.219621E1,2.369487E3,2.0274185E2,2.1667454E3,1.3050183E2,7.2240005E1,1.09782845E2,2.0718992E1],"tree_param":{"num_deleted":"0","num_feature":"7","num_nodes":"11","size_leaf_vector":"1"}},{"base_weights":[-3.665216E-3,-1.00537E-1,9.36834E-1,3.0670634E-1,1.0038469E-1,6.2523047E-3,5.2737117E-1,-1.0588772E0,6.1598726E-2,4.1678375E-1,7.985359E-1,4.9429994E-2,-1.7063582E-1,-1.1463012E-1,1.2551071E-2,3.1994318E-3,4.7658365E-2,8.485407E-2,1.589198E-2],"categories":[],"categories_nodes":[],"categories_segments":[],"categories_sizes":[],"default_left":[0,0,0,0,0,0,0,0,0,0,0,0,0,0,0,0,0,0,0],"id":52,"left_children":[1,-1,3,5,-1,7,9,11,13,15,17,-1,-1,-1,-1,-1,-1,-1,-1],"loss_changes":[3.9769287E3,0E0,9.162732E1,1.3967533E1,0E0,5.3850474E0,3.310089E0,5.381444E0,6.8392725E0,2.0184488E0,9.557781E-1,0E0,0E0,0E0,0E0,0E0,0E0,0E0,0E0],"parents":[2147483647,0,0,2,2,3,3,5,5,6,6,7,7,8,8,9,9,10,10],"right_children":[2,-1,4,6,-1,8,10,12,14,16,18,-1,-1,-1,-1,-1,-1,-1,-1],"split_conditions":[5.984489E-1,-1.00537E-1,7.110967E-1,1.24E2,1.0038469E-1,4E0,3.584E3,6.49E0,1.004E1,1.2E1,9.2E1,4.9429994E-2,-1.7063582E-1,-1.1463012E-1,1.2551071E-2,3.1994318E-3,4.7658365E-2,8.485407E-2,1.589198E-2],"split_indices":[0,0,0,6,0,6,6,3,3,4,4,0,0,0,0,0,0,0,0],"split_type":[0,0,0,0,0,0,0,0,0,0,0,0,0,0,0,0,0,0,0],"sum_hessian":[4.219333E3,2.0431501E3,2.1761829E3,2.0972255E2,1.9664603E3,8.9241264E1,1.20481285E2,3.5124838E0,8.572878E1,8.73819E1,3.309939E1,1.1030552E0,2.4094286E0,3.4570427E0,8.2271736E1,1.1959846E1,7.542205E1,3.0396378E1,2.7030118E0],"tree_param":{"num_deleted":"0","num_feature":"7","num_nodes":"19","size_leaf_vector":"1"}},{"base_weights":[2.1316526E-3,-1.00260034E-1,5.2846277E-1,1.19545385E-1,9.9912536E-1,-9.971725E-2,2.6120955E-1,3.8539182E-2,9.996881E-2,1.4054443E-1,9.649605E-2,-4.0629145E-2,1.8520162E-2],"categories":[],"categories_nodes":[],"categories_segments":[],"categories_sizes":[],"default_left":[0,0,0,0,0,0,0,0,0,0,0,0,0],"id":53,"left_children":[1,-1,3,5,7,-1,9,-1,-1,11,-1,-1,-1],"loss_changes":[2.034922E3,0E0,4.858853E2,2.142034E2,2.0141602E-2,0E0,1.01843864E2,0E0,0E0,2.5137989E1,0E0,0E0,0E0],"parents":[2147483647,0,0,2,2,3,3,4,4,6,6,9,9],"right_children":[2,-1,4,6,8,-1,10,-1,-1,12,-1,-1,-1],"split_conditions":[5.9906745E-1,-1.00260034E-1,6.998525E-1,5.0014895E-1,5.0014895E-1,-9.971725E-2,7.991971E-1,3.8539182E-2,9.996881E-2,1E1,9.649605E-2,-4.0629145E-2,1.8520162E-2],"split_indices":[1,0,1,2,2,0,2,0,0,6,0,0,0],"split_type":[0,0,0,0,0,0,0,0,0,0,0,0,0],"sum_hessian":[3.8460288E3,1.3218322E3,2.5241968E3,1.3513668E3,1.1728298E3,1.514522E2,1.1999146E3,1.7026821E0,1.1711272E3,1.025314E3,1.7460059E2,7.679887E1,9.4851514E2],"tree_param":{"num_deleted":"0","num_feature":"7","num_nodes":"13","size_leaf_vector":"1"}},{"base_weights":[-3.0748395E-3,-1.0048034E-1,9.26894E-1,2.487858E-1,1.0032232E-1,1.06227964E-1,9.684292E-2,-1.3222408E0,1.7896885E-1,-4.272216E-2,-1.9241329E-1,-8.889476E-2,2.7808428E-2],"categories":[],"categories_nodes":[],"categories_segments":[],"categories_sizes":[],"default_left":[0,0,0,0,0,0,0,0,0,0,0,0,0],"id":54,"left_children":[1,-1,3,5,-1,7,-1,9,11,-1,-1,-1,-1],"loss_changes":[3.3189915E3,0E0,9.537915E1,1.921029E1,0E0,1.6680223E1,0E0,3.373003E0,1.6279211E1,0E0,0E0,0E0,0E0],"parents":[2147483647,0,0,2,2,3,3,5,5,7,7,8,8],"right_children":[2,-1,4,6,-1,8,-1,10,12,-1,-1,-1,-1],"split_conditions":[5.984489E-1,-1.0048034E-1,7.110967E-1,7.991971E-1,1.0032232E-1,8E0,9.684292E-2,4.1E1,5.1537794E-1,-4.272216E-2,-1.9241329E-1,-8.889476E-2,2.7808428E-2],"split_indices":[0,0,0,2,0,6,0,4,2,0,0,0,0],"split_type":[0,0,0,0,0,0,0,0,0,0,0,0,0],"sum_hessian":[3.5607695E3,1.7142073E3,1.8465621E3,1.8725433E2,1.6593079E3,1.5725124E2,3.0003086E1,6.787256E0,1.5046399E2,3.4165745E0,3.3706815E0,1.2102043E1,1.3836194E2],"tree_param":{"num_deleted":"0","num_feature":"7","num_nodes":"13","size_leaf_vector":"1"}},{"base_weights":[-3.3379104E-3,-1.0042429E-1,9.191056E-1,2.5494236E-1,1.0027857E-1,1.2839192E-1,9.650626E-2,-9.38697E-2,1.8697792E-1,-9.523406E-2,2.452699E-2],"categories":[],"categories_nodes":[],"categories_segments":[],"categories_sizes":[],"default_left":[0,0,0,0,0,0,0,0,0,0,0],"id":55,"left_children":[1,-1,3,5,-1,7,-1,-1,9,-1,-1],"loss_changes":[2.992581E3,0E0,9.348901E1,1.6957767E1,0E0,1.0333343E1,0E0,0E0,1.0518303E1,0E0,0E0],"parents":[2147483647,0,0,2,2,3,3,5,5,8,8],"right_children":[2,-1,4,6,-1,8,-1,-1,10,-1,-1],"split_conditions":[5.984489E-1,-1.0042429E-1,7.110967E-1,7.991971E-1,1.0027857E-1,5.0014895E-1,9.650626E-2,-9.38697E-2,8E0,-9.523406E-2,2.452699E-2],"split_indices":[0,0,0,2,0,2,0,0,6,0,0],"split_type":[0,0,0,0,0,0,0,0,0,0,0],"sum_hessian":[3.239256E3,1.5535142E3,1.6857421E3,1.8907933E2,1.4966627E3,1.6148239E2,2.759695E1,7.6225357E0,1.5385985E2,6.7423787E0,1.4711748E2],"tree_param":{"num_deleted":"0","num_feature":"7","num_nodes":"11","size_leaf_vector":"1"}},{"base_weights":[-8.374788E-3,-1.0037037E-1,9.111386E-1,2.1374801E-1,1.00238144E-1,-1.24331035E-1,9.617834E-1,-9.860847E-2,4.0145844E-2,3.296949E-1,9.855487E-2,-8.5913995E-3,9.288394E-2,-4.1849483E-3,5.602726E-2],"categories":[],"categories_nodes":[],"categories_segments":[],"categories_sizes":[],"default_left":[0,0,0,0,0,0,0,0,0,0,0,0,0,0,0],"id":56,"left_children":[1,-1,3,5,-1,7,9,-1,11,13,-1,-1,-1,-1,-1],"loss_changes":[2.6816516E3,0E0,9.670007E1,4.5004272E1,0E0,1.7490864E1,5.0667953E-1,0E0,1.177005E1,3.2403836E-1,0E0,0E0,0E0,0E0,0E0],"parents":[2147483647,0,0,2,2,3,3,5,5,6,6,8,8,9,9],"right_children":[2,-1,4,6,-1,8,10,-1,12,14,-1,-1,-1,-1,-1],"split_conditions":[5.984489E-1,-1.0037037E-1,7.110967E-1,6.9718707E-1,1.00238144E-1,5.9906745E-1,6.998525E-1,-9.860847E-2,7.991971E-1,5.880066E-1,9.855487E-2,-8.5913995E-3,9.288394E-2,-4.1849483E-3,5.602726E-2],"split_indices":[0,0,0,1,0,1,1,0,2,2,0,0,0,0,0],"split_type":[0,0,0,0,0,0,0,0,0,0,0,0,0,0,0],"sum_hessian":[2.928068E3,1.4060237E3,1.5220446E3,1.7648344E2,1.345561E3,1.2212301E2,5.4360428E1,1.8772392E1,1.0335062E2,2.5087178E0,5.185171E1,9.130278E1,1.2047836E1,1.2741312E0,1.2345866E0],"tree_param":{"num_deleted":"0","num_feature":"7","num_nodes":"15","size_leaf_vector":"1"}},{"base_weights":[-2.0980502E-3,-1.0032046E-1,9.066207E-1,2.2139502E-1,1.00200966E-1,9.762747E-2,9.62885E-2,-9.7126625E-2,1.5410991E-1,-6.0568552E-2,2.3672402E-2],"categories":[],"categories_nodes":[],"categories_segments":[],"categories_sizes":[],"default_left":[0,0,0,0,0,0,0,0,0,0,0],"id":57,"left_children":[1,-1,3,5,-1,7,-1,-1,9,-1,-1],"loss_changes":[2.4323374E3,0E0,9.138611E1,1.5740966E1,0E0,9.144022E0,0E0,0E0,9.079517E0,0E0,0E0],"parents":[2147483647,0,0,2,2,3,3,5,5,8,8],"right_children":[2,-1,4,6,-1,8,-1,-1,10,-1,-1],"split_conditions":[5.984489E-1,-1.0032046E-1,7.110967E-1,7.991971E-1,1.00200966E-1,5.0014895E-1,9.62885E-2,-9.7126625E-2,1.1E1,-6.0568552E-2,2.3672402E-2],"split_indices":[0,0,0,2,0,2,0,0,6,0,0],"split_type":[0,0,0,0,0,0,0,0,0,0,0],"sum_hessian":[2.6717085E3,1.2711829E3,1.4005256E3,1.715461E2,1.2289795E3,1.4797772E2,2.3568382E1,6.614107E0,1.413636E2,1.3242438E1,1.2812117E2],"tree_param":{"num_deleted":"0","num_feature":"7","num_nodes":"11","size_leaf_vector":"1"}},{"base_weights":[-5.9329043E-3,-1.00275196E-1,8.946929E-1,1.9510667E-1,1.00164905E-1,8.203147E-2,9.576961E-2,-1.9265278E-1,3.1187975E-1,1.7158029E-3,-1.16797104E-1,-6.547008E-2,3.8681876E-2],"categories":[],"categories_nodes":[],"categories_segments":[],"categories_sizes":[],"default_left":[0,0,0,0,0,0,0,0,0,0,0,0,0],"id":58,"left_children":[1,-1,3,5,-1,7,-1,9,11,-1,-1,-1,-1],"loss_changes":[2.1799124E3,0E0,9.525397E1,1.4615425E1,0E0,9.498487E0,0E0,1.408291E1,6.176318E0,0E0,0E0,0E0,0E0],"parents":[2147483647,0,0,2,2,3,3,5,5,7,7,8,8],"right_children":[2,-1,4,6,-1,8,-1,10,12,-1,-1,-1,-1],"split_conditions":[5.984489E-1,-1.00275196E-1,7.110967E-1,7.991971E-1,1.00164905E-1,1.11E2,9.576961E-2,1.771E2,5.063123E-1,1.7158029E-3,-1.16797104E-1,-6.547008E-2,3.8681876E-2],"split_indices":[0,0,0,2,0,6,0,3,2,0,0,0,0],"split_type":[0,0,0,0,0,0,0,0,0,0,0,0,0],"sum_hessian":[2.4261663E3,1.1515306E3,1.2746357E3,1.6940471E2,1.105231E3,1.4849391E2,2.0910803E1,6.772262E1,8.077129E1,5.6541748E1,1.1180874E1,5.254973E0,7.551632E1],"tree_param":{"num_deleted":"0","num_feature":"7","num_nodes":"13","size_leaf_vector":"1"}},{"base_weights":[1.4059083E-3,-1.0023165E-1,8.8445604E-1,2.0436768E-1,1.0013201E-1,-6.069077E-2,9.813482E-2,-9.444508E-1,8.677528E-2,-9.775501E-2,-3.0716648E-2,3.2142147E-2,-2.3831137E-2],"categories":[],"categories_nodes":[],"categories_segments":[],"categories_sizes":[],"default_left":[0,0,0,0,0,0,0,0,0,0,0,0,0],"id":59,"left_children":[1,-1,3,5,-1,7,-1,9,11,-1,-1,-1,-1],"loss_changes":[1.9745823E3,0E0,9.3987976E1,3.6109055E1,0E0,1.7214521E1,0E0,9.804344E-2,8.740335E0,0E0,0E0,0E0,0E0],"parents":[2147483647,0,0,2,2,3,3,5,5,7,7,8,8],"right_children":[2,-1,4,6,-1,8,-1,10,12,-1,-1,-1,-1],"split_conditions":[5.984489E-1,-1.0023165E-1,7.110967E-1,6.998525E-1,1.0013201E-1,6.0174966E-1,9.813482E-2,5.9906745E-1,4.384074E0,-9.775501E-2,-3.0716648E-2,3.2142147E-2,-2.3831137E-2],"split_indices":[0,0,0,1,0,1,0,1,5,0,0,0,0],"split_type":[0,0,0,0,0,0,0,0,0,0,0,0,0],"sum_hessian":[2.2258003E3,1.0416592E3,1.1841411E3,1.7404407E2,1.010097E3,1.3046071E2,4.3583363E1,1.7883121E1,1.1257759E2,1.6492598E1,1.3905238E0,6.5390366E1,4.718722E1],"tree_param":{"num_deleted":"0","num_feature":"7","num_nodes":"13","size_leaf_vector":"1"}},{"base_weights":[-2.5189735E-4,-1.0019121E-1,8.755838E-1,2.0522377E-1,1.00099206E-1,-4.884025E-2,9.802579E-2,-9.7648793E-1,1.0066306E-1,-7.16124E-2,-1.2353658E-1,-1.608003E-2,2.7861018E-2],"categories":[],"categories_nodes":[],"categories_segments":[],"categories_sizes":[],"default_left":[0,0,0,0,0,0,0,0,0,0,0,0,0],"id":60,"left_children":[1,-1,3,5,-1,7,-1,9,11,-1,-1,-1,-1],"loss_changes":[1.7787234E3,0E0,9.073169E1,3.3862396E1,0E0,1.8166874E1,0E0,3.4044647E-1,5.307315E0,0E0,0E0,0E0,0E0],"parents":[2147483647,0,0,2,2,3,3,5,5,7,7,8,8],"right_children":[2,-1,4,6,-1,8,-1,10,12,-1,-1,-1,-1],"split_conditions":[5.984489E-1,-1.0019121E-1,7.110967E-1,6.998525E-1,1.00099206E-1,6.0174966E-1,9.802579E-2,1.7426E2,4.3E1,-7.16124E-2,-1.2353658E-1,-1.608003E-2,2.7861018E-2],"split_indices":[0,0,0,1,0,1,0,3,4,0,0,0,0],"split_type":[0,0,0,0,0,0,0,0,0,0,0,0,0],"sum_hessian":[2.0255209E3,9.4482086E2,1.0807E3,1.7072725E2,9.099727E2,1.2928372E2,4.144353E1,1.7176199E1,1.1210752E2,1.044126E1,6.734938E0,4.5438965E1,6.666856E1],"tree_param":{"num_deleted":"0","num_feature":"7","num_nodes":"13","size_leaf_vector":"1"}},{"base_weights":[-8.732975E-3,-1.0002539E-1,4.744398E-1,7.316136E-2,9.960617E-2,-9.901991E-2,1.9264513E-1,8.228594E-2,9.508636E-2,-1.0840234E-2,2.2720594E-2],"categories":[],"categories_nodes":[],"categories_segments":[],"categories_sizes":[],"default_left":[0,0,0,0,0,0,0,0,0,0,0],"id":61,"left_children":[1,-1,3,5,-1,-1,7,9,-1,-1,-1],"loss_changes":[8.7621643E2,0E0,2.5732983E2,8.863626E1,0E0,0E0,5.2356915E1,1.5171614E1,0E0,0E0,0E0],"parents":[2147483647,0,0,2,2,3,3,6,6,7,7],"right_children":[2,-1,4,6,-1,-1,8,10,-1,-1,-1],"split_conditions":[5.9906745E-1,-1.0002539E-1,6.998525E-1,5.0014895E-1,9.960617E-2,-9.901991E-2,7.991971E-1,1.22E2,9.508636E-2,-1.0840234E-2,2.2720594E-2],"split_indices":[1,0,1,2,0,0,2,6,0,0,0],"split_type":[0,0,0,0,0,0,0,0,0,0,0],"sum_hessian":[1.8269813E3,5.9824664E2,1.2287347E3,6.9512354E2,5.336112E2,6.948105E1,6.2564246E2,5.471177E2,7.852481E1,2.3636128E2,3.1075638E2],"tree_param":{"num_deleted":"0","num_feature":"7","num_nodes":"11","size_leaf_vector":"1"}},{"base_weights":[-4.6619684E-3,-1.0014879E-1,8.641863E-1,1.3950536E-1,1.00053705E-1,-1.14027314E-1,9.736728E-2,-9.5525974E-1,2.8288668E-2,-6.605106E-2,-1.2417265E-1,-1.892558E-1,7.7137165E-3],"categories":[],"categories_nodes":[],"categories_segments":[],"categories_sizes":[],"default_left":[0,0,0,0,0,0,0,0,0,0,0,0,0],"id":62,"left_children":[1,-1,3,5,-1,7,-1,9,11,-1,-1,-1,-1],"loss_changes":[1.4778708E3,0E0,8.994745E1,3.0890776E1,0E0,1.3496816E1,0E0,5.568533E-1,9.266445E0,0E0,0E0,0E0,0E0],"parents":[2147483647,0,0,2,2,3,3,5,5,7,7,8,8],"right_children":[2,-1,4,6,-1,8,-1,10,12,-1,-1,-1,-1],"split_conditions":[5.984489E-1,-1.0014879E-1,7.110967E-1,6.998525E-1,1.00053705E-1,6.0174966E-1,9.736728E-2,1.7426E2,8.24E0,-6.605106E-2,-1.2417265E-1,-1.892558E-1,7.7137165E-3],"split_indices":[0,0,0,1,0,1,0,3,3,0,0,0,0],"split_type":[0,0,0,0,0,0,0,0,0,0,0,0,0],"sum_hessian":[1.704371E3,7.9365796E2,9.10713E2,1.4453853E2,7.661745E2,1.11510025E2,3.3028496E1,1.5308565E1,9.620146E1,9.174513E0,6.1340523E0,1.449761E0,9.47517E1],"tree_param":{"num_deleted":"0","num_feature":"7","num_nodes":"13","size_leaf_vector":"1"}},{"base_weights":[-6.3516553E-3,-1.0011067E-1,8.482344E-1,1.2337781E-1,1.0002337E-1,-1.0054246E-1,9.701275E-2,-9.407489E-1,9.327499E-3,-1.1153784E-1,-5.1131707E-2,-6.1658155E-2,1.846797E-2],"categories":[],"categories_nodes":[],"categories_segments":[],"categories_sizes":[],"default_left":[0,0,0,0,0,0,0,0,0,0,0,0,0],"id":63,"left_children":[1,-1,3,5,-1,7,-1,9,11,-1,-1,-1,-1],"loss_changes":[1.3263228E3,0E0,9.2340515E1,2.7896746E1,0E0,1.0796474E1,0E0,4.4386005E-1,1.1565179E1,0E0,0E0,0E0,0E0],"parents":[2147483647,0,0,2,2,3,3,5,5,7,7,8,8],"right_children":[2,-1,4,6,-1,8,-1,10,12,-1,-1,-1,-1],"split_conditions":[5.984489E-1,-1.0011067E-1,7.110967E-1,6.998525E-1,1.0002337E-1,6.0174966E-1,9.701275E-2,6.6E1,2.5E1,-1.1153784E-1,-5.1131707E-2,-6.1658155E-2,1.846797E-2],"split_indices":[0,0,0,1,0,1,0,4,4,0,0,0,0],"split_type":[0,0,0,0,0,0,0,0,0,0,0,0,0],"sum_hessian":[1.5581903E3,7.1996515E2,8.382251E2,1.4561688E2,6.926082E2,1.1585947E2,2.975741E1,1.2523832E1,1.0333564E2,7.7677307E0,4.756101E0,2.2063843E1,8.12718E1],"tree_param":{"num_deleted":"0","num_feature":"7","num_nodes":"13","size_leaf_vector":"1"}},{"base_weights":[-3.080688E-3,-1.0007224E-1,8.417186E-1,1.4785594E-1,9.999236E-2,-4.5969777E-2,9.661774E-2,-9.7520506E-1,6.2366586E-2,-3.959891E-2,-1.0966486E-1,-2.234887E-3,9.015294E-2],"categories":[],"categories_nodes":[],"categories_segments":[],"categories_sizes":[],"default_left":[0,0,0,0,0,0,0,0,0,0,0,0,0],"id":64,"left_children":[1,-1,3,5,-1,7,-1,9,11,-1,-1,-1,-1],"loss_changes":[1.1999409E3,0E0,8.447894E1,2.2934177E1,0E0,1.1902814E1,0E0,4.3393135E-1,7.576268E0,0E0,0E0,0E0,0E0],"parents":[2147483647,0,0,2,2,3,3,5,5,7,7,8,8],"right_children":[2,-1,4,6,-1,8,-1,10,12,-1,-1,-1,-1],"split_conditions":[5.984489E-1,-1.0007224E-1,7.110967E-1,6.998525E-1,9.999236E-2,6.0174966E-1,9.661774E-2,2.2E1,7.991971E-1,-3.959891E-2,-1.0966486E-1,-2.234887E-3,9.015294E-2],"split_indices":[0,0,0,1,0,1,0,4,2,0,0,0,0],"split_type":[0,0,0,0,0,0,0,0,0,0,0,0,0],"sum_hessian":[1.421744E3,6.518159E2,7.6992804E2,1.4331316E2,6.2661487E2,1.16631836E2,2.668132E1,1.1342446E1,1.0528939E2,2.7044516E0,8.637995E0,9.651894E1,8.770446E0],"tree_param":{"num_deleted":"0","num_feature":"7","num_nodes":"13","size_leaf_vector":"1"}},{"base_weights":[-1.0767784E-3,-1.0003479E-1,8.2663935E-1,1.3981561E-1,9.99613E-2,4.892065E-2,9.291103E-2,1.2624337E-1,-8.829382E-1,-1.5575558E-1,1.6138125E-2,2.2264702E-2,-1.7683549E-1],"categories":[],"categories_nodes":[],"categories_segments":[],"categories_sizes":[],"default_left":[0,0,0,0,0,0,0,0,0,0,0,0,0],"id":65,"left_children":[1,-1,3,5,-1,7,-1,9,11,-1,-1,-1,-1],"loss_changes":[1.0777899E3,0E0,8.453281E1,1.0324757E1,0E0,9.527132E0,0E0,7.442174E0,1.0317204E1,0E0,0E0,0E0,0E0],"parents":[2147483647,0,0,2,2,3,3,5,5,7,7,8,8],"right_children":[2,-1,4,6,-1,8,-1,10,12,-1,-1,-1,-1],"split_conditions":[5.984489E-1,-1.0003479E-1,7.110967E-1,7.991971E-1,9.99613E-2,7.6262057E-1,9.291103E-2,7.57E0,3.218E1,-1.5575558E-1,1.6138125E-2,2.2264702E-2,-1.7683549E-1],"split_indices":[0,0,0,2,0,2,0,3,3,0,0,0,0],"split_type":[0,0,0,0,0,0,0,0,0,0,0,0,0],"sum_hessian":[1.301075E3,5.893572E2,7.117177E2,1.4354681E2,5.681709E2,1.2967542E2,1.3871406E1,1.2053807E2,9.137345E0,1.5783201E0,1.1895975E2,4.396343E0,4.7410016E0],"tree_param":{"num_deleted":"0","num_feature":"7","num_nodes":"13","size_leaf_vector":"1"}},{"base_weights":[-1.2002568E-2,-9.9856995E-2,4.292013E-1,5.032409E-2,9.939548E-2,-9.61398E-1,1.5734304E-1,-9.848531E-2,-3.7720063E-1,5.656854E-2,9.3353294E-2,-1.9780812E-3,-5.8825802E-2,-9.0472154E-2,9.512355E-3],"categories":[],"categories_nodes":[],"categories_segments":[],"categories_sizes":[],"default_left":[0,0,0,0,0,0,0,0,0,0,0,0,0,0,0],"id":66,"left_children":[1,-1,3,5,-1,7,9,-1,11,13,-1,-1,-1,-1,-1],"loss_changes":[5.156635E2,0E0,1.751104E2,5.3311893E1,0E0,2.740097E-1,3.47455E1,0E0,2.4779662E-1,1.4719054E1,0E0,0E0,0E0,0E0,0E0],"parents":[2147483647,0,0,2,2,3,3,5,5,6,6,8,8,9,9],"right_children":[2,-1,4,6,-1,8,10,-1,12,14,-1,-1,-1,-1,-1],"split_conditions":[5.9906745E-1,-9.9856995E-2,6.998525E-1,5.0320554E-1,9.939548E-2,5.0014895E-1,7.991971E-1,-9.848531E-2,1.24E2,6E0,9.3353294E-2,-1.9780812E-3,-5.8825802E-2,-9.0472154E-2,9.512355E-3],"split_indices":[1,0,1,2,0,2,2,0,6,6,0,0,0,0,0],"split_type":[0,0,0,0,0,0,0,0,0,0,0,0,0,0,0],"sum_hessian":[1.1826935E3,3.650806E2,8.1761285E2,4.8998486E2,3.2762796E2,4.6108334E1,4.4387653E2,4.3669228E1,2.4391074E0,3.93819E2,5.005754E1,1.3116268E0,1.1274807E0,1.4319746E1,3.7949924E2],"tree_param":{"num_deleted":"0","num_feature":"7","num_nodes":"15","size_leaf_vector":"1"}},{"base_weights":[3.5187579E-3,-9.998928E-2,8.1409204E-1,1.3599011E-1,9.991591E-2,-4.4944406E-2,9.605001E-2,-9.0042746E-1,5.315007E-2,-2.7413605E-2,-1.0890662E-1,5.1682126E-2,-1.2024927E-2],"categories":[],"categories_nodes":[],"categories_segments":[],"categories_sizes":[],"default_left":[0,0,0,0,0,0,0,0,0,0,0,0,0],"id":67,"left_children":[1,-1,3,5,-1,7,-1,9,11,-1,-1,-1,-1],"loss_changes":[9.061678E2,0E0,7.7204285E1,1.9927889E1,0E0,9.300701E0,0E0,1.0480633E0,8.091088E0,0E0,0E0,0E0,0E0],"parents":[2147483647,0,0,2,2,3,3,5,5,7,7,8,8],"right_children":[2,-1,4,6,-1,8,-1,10,12,-1,-1,-1,-1],"split_conditions":[5.984489E-1,-9.998928E-2,7.110967E-1,6.998525E-1,9.991591E-2,6.0174966E-1,9.605001E-2,3.8405986E0,3.9460099E0,-2.7413605E-2,-1.0890662E-1,5.1682126E-2,-1.2024927E-2],"split_indices":[0,0,0,1,0,1,0,5,5,0,0,0,0],"split_type":[0,0,0,0,0,0,0,0,0,0,0,0,0],"sum_hessian":[1.1121328E3,4.968486E2,6.152842E2,1.3229144E2,4.8299274E2,1.0926031E2,2.303113E1,1.039821E1,9.88621E1,2.974831E0,7.423379E0,2.636945E1,7.2492645E1],"tree_param":{"num_deleted":"0","num_feature":"7","num_nodes":"13","size_leaf_vector":"1"}},{"base_weights":[3.9369613E-3,-9.994964E-2,7.9518574E-1,1.0990144E-1,9.988378E-2,-5.07339E-2,9.546416E-2,-2.8240287E-1,2.662877E-1,-3.0104618E-3,-1.14383034E-1,-9.835427E-2,3.4585696E-2],"categories":[],"categories_nodes":[],"categories_segments":[],"categories_sizes":[],"default_left":[0,0,0,0,0,0,0,0,0,0,0,0,0],"id":68,"left_children":[1,-1,3,5,-1,7,-1,9,11,-1,-1,-1,-1],"loss_changes":[8.114433E2,0E0,7.963727E1,1.7964779E1,0E0,8.29267E0,0E0,1.4121021E1,5.089403E0,0E0,0E0,0E0,0E0],"parents":[2147483647,0,0,2,2,3,3,5,5,7,7,8,8],"right_children":[2,-1,4,6,-1,8,-1,10,12,-1,-1,-1,-1],"split_conditions":[5.984489E-1,-9.994964E-2,7.110967E-1,6.998525E-1,9.988378E-2,2.55E2,9.546416E-2,1.6191E2,5.0931937E-1,-3.0104618E-3,-1.14383034E-1,-9.835427E-2,3.4585696E-2],"split_indices":[0,0,0,1,0,6,0,3,2,0,0,0,0],"split_type":[0,0,0,0,0,0,0,0,0,0,0,0,0],"sum_hessian":[1.02001227E3,4.495923E2,5.7042E2,1.3103381E2,4.393862E2,1.1088746E2,2.0146358E1,6.4131485E1,4.6755974E1,5.0403927E1,1.3727553E1,2.1185224E0,4.463745E1],"tree_param":{"num_deleted":"0","num_feature":"7","num_nodes":"13","size_leaf_vector":"1"}},{"base_weights":[3.871009E-3,-9.9910535E-2,7.724073E-1,1.155869E-1,9.984729E-2,3.9584607E-2,9.046261E-2,5.2910423E-1,-7.780096E-2,8.7709045E-3,6.862975E-2,-1.800019E-1,1.4903429E-3],"categories":[],"categories_nodes":[],"categories_segments":[],"categories_sizes":[],"default_left":[0,0,0,0,0,0,0,0,0,0,0,0,0],"id":69,"left_children":[1,-1,3,5,-1,7,-1,9,11,-1,-1,-1,-1],"loss_changes":[7.250702E2,0E0,7.896161E1,8.209579E0,0E0,7.3078885E0,0E0,1.6458068E0,1.6451157E1,0E0,0E0,0E0,0E0],"parents":[2147483647,0,0,2,2,3,3,5,5,7,7,8,8],"right_children":[2,-1,4,6,-1,8,-1,10,12,-1,-1,-1,-1],"split_conditions":[5.984489E-1,-9.9910535E-2,7.110967E-1,7.960875E-1,9.984729E-2,3.775883E0,9.046261E-2,2.7E1,8E0,8.7709045E-3,6.862975E-2,-1.800019E-1,1.4903429E-3],"split_indices":[0,0,0,2,0,5,0,6,6,0,0,0,0],"split_type":[0,0,0,0,0,0,0,0,0,0,0,0,0],"sum_hessian":[9.386422E2,4.0708148E2,5.315607E2,1.3649467E2,3.95066E2,1.254602E2,1.1034483E1,2.35877E1,1.018725E2,6.603417E0,1.6984283E1,4.2628345E0,9.7609665E1],"tree_param":{"num_deleted":"0","num_feature":"7","num_nodes":"13","size_leaf_vector":"1"}},{"base_weights":[-4.1567064E-3,-9.7653264E-1,4.1107795E-1,-9.970341E-2,-2.7652383E-1,6.971057E-2,9.914047E-2,1.6785012E-1,-6.016708E-1,-9.772294E-2,1.6107623E-1,-1.0631431E-2,4.1809212E-2,-9.453326E-1,2.6718974E-2,7.457075E-2,9.199696E-2,-1.3966343E-1,-1.5775096E-2,-4.0781937E-4,3.565613E-2],"categories":[],"categories_nodes":[],"categories_segments":[],"categories_sizes":[],"default_left":[0,0,0,0,0,0,0,0,0,0,0,0,0,0,0,0,0,0,0,0,0],"id":70,"left_children":[1,3,5,-1,7,9,-1,11,13,-1,15,-1,-1,17,-1,19,-1,-1,-1,-1,-1],"loss_changes":[3.4389343E2,3.382019E0,1.18170364E2,0E0,1.3487642E0,3.6206947E1,0E0,3.484363E-1,1.8067898E0,0E0,2.274304E1,0E0,0E0,1.1837182E0,0E0,6.9435587E0,0E0,0E0,0E0,0E0,0E0],"parents":[2147483647,0,0,1,1,2,2,4,4,5,5,7,7,8,8,10,10,13,13,15,15],"right_children":[2,4,6,-1,8,10,-1,12,14,-1,16,-1,-1,18,-1,20,-1,-1,-1,-1,-1],"split_conditions":[6.0174966E-1,5.9906745E-1,6.998525E-1,-9.970341E-2,3.9E1,5.0014895E-1,9.914047E-2,7.1696484E-1,7.5043523E-1,-9.772294E-2,7.991971E-1,-1.0631431E-2,4.1809212E-2,6.6E1,2.6718974E-2,1.433E3,9.199696E-2,-1.3966343E-1,-1.5775096E-2,-4.0781937E-4,3.565613E-2],"split_indices":[1,1,1,0,4,2,0,2,2,0,2,0,0,4,0,6,0,0,0,0,0],"split_type":[0,0,0,0,0,0,0,0,0,0,0,0,0,0,0,0,0,0,0,0,0],"sum_hessian":[8.497244E2,2.5387074E2,5.958537E2,2.4623483E2,7.6358976E0,3.7587292E2,2.1998074E2,3.4308176E0,4.20508E0,2.9391066E1,3.4648187E2,1.9116135E0,1.5192043E0,2.9501774E0,1.2549024E0,3.1201398E2,3.4467888E1,1.3838696E0,1.5663078E0,2.4473999E2,6.727399E1],"tree_param":{"num_deleted":"0","num_feature":"7","num_nodes":"21","size_leaf_vector":"1"}},{"base_weights":[1.076231E-2,-9.9855326E-2,7.6478124E-1,1.2499378E-1,9.979408E-2,-9.038103E-1,1.7554201E-1,5.6992457E-3,-1.1715889E-1,1.1107386E-1,8.905751E-2,-3.9290722E-2,2.1319598E-2],"categories":[],"categories_nodes":[],"categories_segments":[],"categories_sizes":[],"default_left":[0,0,0,0,0,0,0,0,0,0,0,0,0],"id":71,"left_children":[1,-1,3,5,-1,7,9,-1,-1,11,-1,-1,-1],"loss_changes":[6.128527E2,0E0,6.863281E1,6.6204E0,0E0,1.6057601E0,5.399167E0,0E0,0E0,5.7735434E0,0E0,0E0,0E0],"parents":[2147483647,0,0,2,2,3,3,5,5,6,6,9,9],"right_children":[2,-1,4,6,-1,8,10,-1,-1,12,-1,-1,-1],"split_conditions":[5.984489E-1,-9.9855326E-2,7.110967E-1,5.063123E-1,9.979408E-2,3.7350507E0,7.991971E-1,5.6992457E-3,-1.1715889E-1,4.116E1,8.905751E-2,-3.9290722E-2,2.1319598E-2],"split_indices":[0,0,0,2,0,5,2,0,0,3,0,0,0],"split_type":[0,0,0,0,0,0,0,0,0,0,0,0,0],"sum_hessian":[8.032765E2,3.4335013E2,4.5992633E2,1.2325417E2,3.3667218E2,4.981708E0,1.1827246E2,1.2573695E0,3.7243385E0,1.09550606E2,8.721859E0,1.7978384E1,9.157222E1],"tree_param":{"num_deleted":"0","num_feature":"7","num_nodes":"13","size_leaf_vector":"1"}},{"base_weights":[-3.0008398E-3,-9.9812664E-2,7.2955096E-1,6.47624E-2,9.975063E-2,-7.442722E-2,9.424507E-2,-1.8256998E-1,5.90597E-1,-2.7897835E-2,7.066866E-2,-2.3035023E-2,8.316497E-2],"categories":[],"categories_nodes":[],"categories_segments":[],"categories_sizes":[],"default_left":[0,0,0,0,0,0,0,0,0,0,0,0,0],"id":72,"left_children":[1,-1,3,5,-1,7,-1,9,11,-1,-1,-1,-1],"loss_changes":[5.3751306E2,0E0,7.559015E1,1.5105982E1,0E0,7.814366E0,0E0,8.164518E0,3.2043304E0,0E0,0E0,0E0,0E0],"parents":[2147483647,0,0,2,2,3,3,5,5,7,7,8,8],"right_children":[2,-1,4,6,-1,8,-1,10,12,-1,-1,-1,-1],"split_conditions":[5.984489E-1,-9.9812664E-2,7.110967E-1,6.998525E-1,9.975063E-2,3.584E3,9.424507E-2,9.7E1,6.2810254E-1,-2.7897835E-2,7.066866E-2,-2.3035023E-2,8.316497E-2],"split_indices":[0,0,0,1,0,6,0,4,1,0,0,0,0],"split_type":[0,0,0,0,0,0,0,0,0,0,0,0,0],"sum_hessian":[7.353494E2,3.1164145E2,4.2370795E2,1.2207801E2,3.0162994E2,1.0615798E2,1.5920033E1,9.193367E1,1.4224306E1,8.356075E1,8.372921E0,3.23871E0,1.0985597E1],"tree_param":{"num_deleted":"0","num_feature":"7","num_nodes":"13","size_leaf_vector":"1"}},{"base_weights":[1.0168042E-2,-9.955614E-2,3.8385153E-1,8.023955E-2,9.888831E-2,-9.781129E-2,1.6040163E-1,8.4736E-2,9.0828784E-2,-7.847327E-2,1.0768224E-2],"categories":[],"categories_nodes":[],"categories_segments":[],"categories_sizes":[],"default_left":[0,0,0,0,0,0,0,0,0,0,0],"id":73,"left_children":[1,-1,3,5,-1,-1,7,9,-1,-1,-1],"loss_changes":[2.5614404E2,0E0,9.1198586E1,2.8319885E1,0E0,0E0,1.7434113E1,5.7129655E0,0E0,0E0,0E0],"parents":[2147483647,0,0,2,2,3,3,6,6,7,7],"right_children":[2,-1,4,6,-1,-1,8,10,-1,-1,-1],"split_conditions":[5.9906745E-1,-9.955614E-2,6.998525E-1,5.0014895E-1,9.888831E-2,-9.781129E-2,7.991971E-1,4E0,9.0828784E-2,-7.847327E-2,1.0768224E-2],"split_indices":[1,0,1,2,0,0,2,6,0,0,0],"split_type":[0,0,0,0,0,0,0,0,0,0,0],"sum_hessian":[6.795355E2,1.836356E2,4.9589993E2,3.3095526E2,1.6494466E2,2.2513643E1,3.0844162E2,2.811139E2,2.7327734E1,6.374524E0,2.7473938E2],"tree_param":{"num_deleted":"0","num_feature":"7","num_nodes":"11","size_leaf_vector":"1"}},{"base_weights":[2.816482E-3,-9.974833E-2,7.1635854E-1,8.054196E-2,9.968503E-2,-1.9679496E-1,4.381058E-1,-6.628776E-1,5.1072374E-2,2.469395E-1,9.287461E-2,-2.7178828E-2,-2.71106E-1,2.0598242E-2,-1.2206014E-1,4.1561477E-2,-5.805535E-2],"categories":[],"categories_nodes":[],"categories_segments":[],"categories_sizes":[],"default_left":[0,0,0,0,0,0,0,0,0,0,0,0,0,0,0,0,0],"id":74,"left_children":[1,-1,3,5,-1,7,9,11,13,15,-1,-1,-1,-1,-1,-1,-1],"loss_changes":[4.5440433E2,0E0,6.61873E1,1.1473583E1,0E0,7.5848017E0,4.5044975E0,1.7497175E1,8.839942E0,5.500822E0,0E0,0E0,0E0,0E0,0E0,0E0,0E0],"parents":[2147483647,0,0,2,2,3,3,5,5,6,6,7,7,8,8,9,9],"right_children":[2,-1,4,6,-1,8,10,12,14,16,-1,-1,-1,-1,-1,-1,-1],"split_conditions":[5.984489E-1,-9.974833E-2,7.110967E-1,6.627079E-1,9.968503E-2,4.291673E0,6.998525E-1,4.1517925E0,8.3E1,4.58986E0,9.287461E-2,-2.7178828E-2,-2.71106E-1,2.0598242E-2,-1.2206014E-1,4.1561477E-2,-5.805535E-2],"split_indices":[0,0,0,1,0,5,1,5,4,5,0,0,0,0,0,0,0],"split_type":[0,0,0,0,0,0,0,0,0,0,0,0,0,0,0,0,0],"sum_hessian":[6.3463715E2,2.640596E2,3.7057758E2,1.1383176E2,2.5674582E2,6.436106E1,4.947069E1,2.176342E1,4.259764E1,3.66818E1,1.2788891E1,1.9225174E1,2.538246E0,3.8719067E1,3.878574E0,3.0884151E1,5.79765E0],"tree_param":{"num_deleted":"0","num_feature":"7","num_nodes":"17","size_leaf_vector":"1"}},{"base_weights":[-1.3338211E-2,-6.8191165E-1,9.9640206E-2,-9.9696696E-2,-2.1518886E-2,-1.4409804E-1,9.26357E-2,-2.1157187E-1,8.9775346E-2,-2.1740699E-1,-1.0624082E-2],"categories":[],"categories_nodes":[],"categories_segments":[],"categories_sizes":[],"default_left":[0,0,0,0,0,0,0,0,0,0,0],"id":75,"left_children":[1,3,-1,-1,5,7,-1,9,-1,-1,-1],"loss_changes":[3.978806E2,7.375285E1,0E0,0E0,1.3558828E1,7.4433002E0,0E0,1.9967682E1,0E0,0E0,0E0],"parents":[2147483647,0,0,1,1,4,4,5,5,7,7],"right_children":[2,4,-1,-1,6,8,-1,10,-1,-1,-1],"split_conditions":[7.110967E-1,5.984489E-1,9.9640206E-2,-9.9696696E-2,6.998525E-1,9.9E1,9.26357E-2,8E0,8.9775346E-2,-2.1740699E-1,-1.0624082E-2],"split_indices":[0,0,0,0,1,4,0,6,0,0,0],"split_type":[0,0,0,0,0,0,0,0,0,0,0],"sum_hessian":[5.8737164E2,3.5358145E2,2.3379018E2,2.3903484E2,1.14546616E2,1.0218061E2,1.2366003E1,9.671401E1,5.466599E0,3.9259775E0,9.278803E1],"tree_param":{"num_deleted":"0","num_feature":"7","num_nodes":"11","size_leaf_vector":"1"}},{"base_weights":[6.8798256E-3,-9.964257E-2,6.6251874E-1,8.747247E-2,9.958445E-2,3.3582836E-2,8.742653E-2,1.4122202E-1,-3.57057E-1,-6.953621E-2,2.0546883E-2,-9.793404E-3,-2.1368451E-1],"categories":[],"categories_nodes":[],"categories_segments":[],"categories_sizes":[],"default_left":[0,0,0,0,0,0,0,0,0,0,0,0,0],"id":76,"left_children":[1,-1,3,5,-1,7,-1,9,11,-1,-1,-1,-1],"loss_changes":[3.617391E2,0E0,6.366028E1,5.191539E0,0E0,4.9398355E0,0E0,5.08115E0,1.1506055E1,0E0,0E0,0E0,0E0],"parents":[2147483647,0,0,2,2,3,3,5,5,7,7,8,8],"right_children":[2,-1,4,6,-1,8,-1,10,12,-1,-1,-1,-1],"split_conditions":[5.984489E-1,-9.964257E-2,7.110967E-1,7.991971E-1,9.958445E-2,2.7388E2,8.742653E-2,5.1844424E-1,7.534824E-1,-6.953621E-2,2.0546883E-2,-9.793404E-3,-2.1368451E-1],"split_indices":[0,0,0,2,0,3,0,2,2,0,0,0,0],"split_type":[0,0,0,0,0,0,0,0,0,0,0,0,0],"sum_hessian":[5.479139E2,2.163381E2,3.315758E2,1.2213449E2,2.094413E2,1.1528124E2,6.8532505E0,9.0878525E1,2.4402714E1,5.78082E0,8.509771E1,2.2222343E1,2.1803706E0],"tree_param":{"num_deleted":"0","num_feature":"7","num_nodes":"13","size_leaf_vector":"1"}},